{"learner":{"attributes":{"best_iteration":"98","best_score":"0.9261652661201619"},"feature_names":["price","ranking_score","ranking_position","user_id_enc","product_id_enc","unix_time","dayofweek"],"feature_types":["float","int","int","int","int","int","int"],"gradient_booster":{"model":{"gbtree_model_param":{"num_parallel_tree":"1","num_trees":"149"},"iteration_indptr":[0,1,2,3,4,5,6,7,8,9,10,11,12,13,14,15,16,17,18,19,20,21,22,23,24,25,26,27,28,29,30,31,32,33,34,35,36,37,38,39,40,41,42,43,44,45,46,47,48,49,50,51,52,53,54,55,56,57,58,59,60,61,62,63,64,65,66,67,68,69,70,71,72,73,74,75,76,77,78,79,80,81,82,83,84,85,86,87,88,89,90,91,92,93,94,95,96,97,98,99,100,101,102,103,104,105,106,107,108,109,110,111,112,113,114,115,116,117,118,119,120,121,122,123,124,125,126,127,128,129,130,131,132,133,134,135,136,137,138,139,140,141,142,143,144,145,146,147,148,149],"tree_info":[0,0,0,0,0,0,0,0,0,0,0,0,0,0,0,0,0,0,0,0,0,0,0,0,0,0,0,0,0,0,0,0,0,0,0,0,0,0,0,0,0,0,0,0,0,0,0,0,0,0,0,0,0,0,0,0,0,0,0,0,0,0,0,0,0,0,0,0,0,0,0,0,0,0,0,0,0,0,0,0,0,0,0,0,0,0,0,0,0,0,0,0,0,0,0,0,0,0,0,0,0,0,0,0,0,0,0,0,0,0,0,0,0,0,0,0,0,0,0,0,0,0,0,0,0,0,0,0,0,0,0,0,0,0,0,0,0,0,0,0,0,0,0,0,0,0,0,0,0],"trees":[{"base_weights":[2.0627564E-2,-6.2970275E-1,8.254239E-2,6.569918E-3,-7.1515733E-1,3.0968219E-2,6.2624604E-1,-8.722659E-2,-2.4722679E-1,1.7078209E-1,-1.6425626E-1,-1.7896032E-2,7.779949E-1,2.7159432E-2,-6.290849E-2,6.836892E-1,6.7137934E-2,-9.600993E-2,-7.899957E-2,2.6702417E-2,8.687175E-2,-1.955253E-2,8.2352184E-2,-6.8849966E-2,1.0881399E-1,-2.038303E-1,5.43495E-1,1.890195E-2,-1.5511468E-2,-4.4989627E-2,-2.5298155E-3,8.053693E-2,-1.3572024E-2],"categories":[],"categories_nodes":[],"categories_segments":[],"categories_sizes":[],"default_left":[0,0,0,0,0,0,0,0,0,0,0,0,0,0,0,0,0,0,0,0,0,0,0,0,0,0,0,0,0,0,0,0,0],"id":0,"left_children":[1,3,5,-1,7,9,11,-1,13,15,17,-1,19,-1,-1,21,23,25,-1,-1,-1,-1,-1,-1,27,29,31,-1,-1,-1,-1,-1,-1],"loss_changes":[5.668318E0,7.7441645E-1,3.5766764E0,0E0,5.919709E-1,3.2539005E0,1.4904952E0,0E0,9.9439716E-1,3.641017E0,2.052064E0,0E0,2.0805597E-1,0E0,0E0,1.5810032E0,1.9268177E0,3.287179E0,0E0,0E0,0E0,0E0,0E0,0E0,1.2273557E0,1.7523457E0,1.3399928E0,0E0,0E0,0E0,0E0,0E0,0E0],"parents":[2147483647,0,0,1,1,2,2,4,4,5,5,6,6,8,8,9,9,10,10,12,12,15,15,16,16,17,17,24,24,25,25,26,26],"right_children":[2,4,6,-1,8,10,12,-1,14,16,18,-1,20,-1,-1,22,24,26,-1,-1,-1,-1,-1,-1,28,30,32,-1,-1,-1,-1,-1,-1],"split_conditions":[1E0,6E0,1.7496914E9,6.569918E-3,3.6E1,3.4E1,2.1E1,-8.722659E-2,4.8E1,1.7485524E9,1.7495704E9,-1.7896032E-2,3.9E1,2.7159432E-2,-6.290849E-2,1.3E1,1.7485644E9,1.7493188E9,-7.899957E-2,2.6702417E-2,8.687175E-2,-1.955253E-2,8.2352184E-2,-6.8849966E-2,6E0,4.4E1,5.1E1,1.890195E-2,-1.5511468E-2,-4.4989627E-2,-2.5298155E-3,8.053693E-2,-1.3572024E-2],"split_indices":[6,2,5,0,2,2,2,0,2,5,5,0,2,0,0,3,5,5,0,0,0,0,0,0,6,2,2,0,0,0,0,0,0],"split_type":[0,0,0,0,0,0,0,0,0,0,0,0,0,0,0,0,0,0,0,0,0,0,0,0,0,0,0,0,0,0,0,0,0],"sum_hessian":[1.3848412E2,1.1241118E1,1.27243E2,1.2554934E0,9.985625E0,1.171842E2,1.00588E1,6.828762E0,3.156863E0,6.8355354E1,4.882884E1,1.5666353E0,8.492165E0,1.4608282E0,1.6960348E0,1.0549956E1,5.7805397E1,4.506703E1,3.761806E0,1.8750051E0,6.6171594E0,1.3930024E0,9.156954E0,2.210269E0,5.559513E1,3.9147964E1,5.919069E0,4.2855545E1,1.2739584E1,1.5821565E1,2.3326399E1,4.1379356E0,1.7811337E0],"tree_param":{"num_deleted":"0","num_feature":"7","num_nodes":"33","size_leaf_vector":"1"}},{"base_weights":[3.8697843E-2,6.915706E-2,-8.9970075E-2,-1.8076834E-1,1.7831987E-1,-3.946716E-1,3.6707798E-1,-6.705038E-1,2.4936391E-1,1.6062453E-1,-6.7263293E-1,-3.512217E-1,7.2149426E-1,-9.1746174E-2,4.8746314E-2,9.019894E-2,2.1092355E-1,7.359413E-1,-6.7859817E-1,-2.5590554E-1,-8.8762045E-2,6.407603E-2,-6.487197E-1,9.189262E-2,2.9279464E-1,-6.6553704E-2,6.983606E-2,-8.1939064E-2,2.4109428E-1,-5.90607E-2,9.183883E-2,-8.92481E-2,5.3072672E-2,-6.549534E-2,8.050878E-2,-1.9049332E-2,-8.194906E-2,-6.2409498E-2,6.5749265E-2,1.1936202E-2,4.8412617E-2],"categories":[],"categories_nodes":[],"categories_segments":[],"categories_sizes":[],"default_left":[0,0,0,0,0,0,0,0,0,0,0,0,0,0,0,0,0,0,0,0,0,0,0,0,0,0,0,0,0,0,0,0,0,0,0,0,0,0,0,0,0],"id":1,"left_children":[1,3,-1,5,7,9,11,13,15,17,19,21,23,-1,25,-1,27,29,31,33,-1,-1,35,-1,37,-1,-1,-1,39,-1,-1,-1,-1,-1,-1,-1,-1,-1,-1,-1,-1],"loss_changes":[9.552203E0,8.831048E0,0E0,1.1692239E1,1.3733648E1,1.11210375E1,7.429497E0,3.1790895E0,5.03596E0,1.23808975E1,4.0500965E0,3.3625975E0,1.356226E0,0E0,2.9981713E0,0E0,6.353675E0,4.1920395E0,3.1970263E0,8.001247E0,0E0,0E0,4.8390102E-1,0E0,2.9257927E0,0E0,0E0,0E0,5.6573477E0,0E0,0E0,0E0,0E0,0E0,0E0,0E0,0E0,0E0,0E0,0E0,0E0],"parents":[2147483647,0,0,1,1,3,3,4,4,5,5,6,6,7,7,8,8,9,9,10,10,11,11,12,12,14,14,16,16,17,17,18,18,19,19,22,22,24,24,28,28],"right_children":[2,4,-1,6,8,10,12,14,16,18,20,22,24,-1,26,-1,28,30,32,34,-1,-1,36,-1,38,-1,-1,-1,40,-1,-1,-1,-1,-1,-1,-1,-1,-1,-1,-1,-1],"split_conditions":[5.9E1,2E1,-8.9970075E-2,1.7490825E9,1.506E1,6.405E1,4.4E1,3.8E1,2.444E1,3.4E1,1.7486915E9,1.3E1,6.3E1,-9.1746174E-2,1.222E1,9.019894E-2,3.717E1,7E0,4.376E1,1.5164E2,-8.8762045E-2,6.407603E-2,9E0,9.189262E-2,1.7491633E9,-6.6553704E-2,6.983606E-2,-8.1939064E-2,3.3E1,-5.90607E-2,9.183883E-2,-8.92481E-2,5.3072672E-2,-6.549534E-2,8.050878E-2,-1.9049332E-2,-8.194906E-2,-6.2409498E-2,6.5749265E-2,1.1936202E-2,4.8412617E-2],"split_indices":[2,2,0,5,0,0,4,3,0,3,5,4,4,0,0,0,0,3,0,0,0,0,2,0,5,0,0,0,3,0,0,0,0,0,0,0,0,0,0,0,0],"split_type":[0,0,0,0,0,0,0,0,0,0,0,0,0,0,0,0,0,0,0,0,0,0,0,0,0,0,0,0,0,0,0,0,0,0,0,0,0,0,0,0,0],"sum_hessian":[3.3101627E2,3.2150687E2,9.509398E0,9.753868E1,2.2396819E2,7.0350395E1,2.7188286E1,1.6646027E1,2.0732216E2,2.3608583E1,4.674181E1,8.985758E0,1.8202528E1,1.2186243E1,4.4597836E0,1.0282652E1,1.970395E2,1.4079594E1,9.52899E0,1.665276E1,3.008905E1,1.8069167E0,7.178841E0,1.1679959E1,6.5225687E0,2.1124873E0,2.3472965E0,4.8615556E0,1.9217795E2,1.4318259E0,1.2647768E1,8.319579E0,1.2094109E0,1.237945E1,4.2733097E0,2.5233836E0,4.6554575E0,1.6537071E0,4.868861E0,1.2903615E2,6.31418E1],"tree_param":{"num_deleted":"0","num_feature":"7","num_nodes":"41","size_leaf_vector":"1"}},{"base_weights":[2.3109462E-2,-6.9860056E-2,4.0234932E-1,-9.594746E-3,-4.5154226E-1,-2.0596412E-1,6.1501294E-1,-1.986596E-1,1.2265809E-1,-7.603487E-1,-7.645172E-2,8.105454E-2,-7.602098E-1,8.6978275E-1,3.0488306E-1,-6.477221E-1,-3.2036472E-2,1.7047906E-1,-8.02718E-2,2.7766446E-2,-9.0196095E-2,6.2259835E-1,-8.413198E-2,-8.5333824E-2,-1.5730893E-2,9.277763E-2,1.2647479E-2,-8.000863E-2,6.4668024E-1,-8.681035E-1,-1.8663545E-1,2.4323577E-1,-4.6260694E-1,9.552537E-2,6.3137347E-1,8.052054E-2,1.1692503E-2,1.9504155E-1,7.5603807E-1,-2.2385282E-2,-9.17792E-2,6.634243E-2,-5.6625783E-2,-8.101607E-2,4.3755207E-2,1.6589236E-2,-7.673394E-2,1.9300474E-2,-5.3260036E-2,7.771676E-2,3.817708E-3,6.6078775E-2,-5.284519E-2,8.517522E-2,2.8394997E-2],"categories":[],"categories_nodes":[],"categories_segments":[],"categories_sizes":[],"default_left":[0,0,0,0,0,0,0,0,0,0,0,0,0,0,0,0,0,0,0,0,0,0,0,0,0,0,0,0,0,0,0,0,0,0,0,0,0,0,0,0,0,0,0,0,0,0,0,0,0,0,0,0,0,0,0],"id":2,"left_children":[1,3,5,7,9,11,13,15,17,19,21,-1,23,25,27,29,31,33,-1,-1,-1,35,-1,-1,-1,-1,-1,-1,37,39,41,43,45,47,49,-1,-1,51,53,-1,-1,-1,-1,-1,-1,-1,-1,-1,-1,-1,-1,-1,-1,-1,-1],"loss_changes":[9.859777E0,5.166621E0,7.2481146E0,4.904457E0,3.4901075E0,9.072082E0,2.977456E0,6.0185046E0,5.246092E0,2.7036839E0,8.513982E0,0E0,4.4008827E-1,8.30637E-1,8.089312E0,2.0522957E0,7.2146473E0,3.7607384E0,0E0,0E0,0E0,6.7989254E-1,0E0,0E0,0E0,0E0,0E0,0E0,6.361308E-1,2.5776958E-1,3.0608652E0,7.970665E0,4.6689816E0,6.000093E0,1.2929807E0,0E0,0E0,1.8454388E0,3.195691E-1,0E0,0E0,0E0,0E0,0E0,0E0,0E0,0E0,0E0,0E0,0E0,0E0,0E0,0E0,0E0,0E0],"parents":[2147483647,0,0,1,1,2,2,3,3,4,4,5,5,6,6,7,7,8,8,9,9,10,10,12,12,13,13,14,14,15,15,16,16,17,17,21,21,28,28,29,29,30,30,31,31,32,32,33,33,34,34,37,37,38,38],"right_children":[2,4,6,8,10,12,14,16,18,20,22,-1,24,26,28,30,32,34,-1,-1,-1,36,-1,-1,-1,-1,-1,-1,38,40,42,44,46,48,50,-1,-1,52,54,-1,-1,-1,-1,-1,-1,-1,-1,-1,-1,-1,-1,-1,-1,-1,-1],"split_conditions":[1.7493188E9,5E1,2.1E1,2.1E1,3.4E1,1.749415E9,2.3E1,7.949E1,1.7492452E9,7E0,4E0,8.105454E-2,5E0,5.9E1,3E1,1.3E1,1.615E2,1.7489943E9,-8.02718E-2,2.7766446E-2,-9.0196095E-2,3.7E1,-8.413198E-2,-8.5333824E-2,-1.5730893E-2,9.277763E-2,1.2647479E-2,-8.000863E-2,1.281E2,2.444E1,1.7485238E9,1E1,7E0,1.7489454E9,1.1516E2,8.052054E-2,1.1692503E-2,2.7E1,1.749616E9,-2.2385282E-2,-9.17792E-2,6.634243E-2,-5.6625783E-2,-8.101607E-2,4.3755207E-2,1.6589236E-2,-7.673394E-2,1.9300474E-2,-5.3260036E-2,7.771676E-2,3.817708E-3,6.6078775E-2,-5.284519E-2,8.517522E-2,2.8394997E-2],"split_indices":[5,2,2,3,3,5,3,0,5,3,1,0,1,2,3,3,0,5,0,0,0,3,0,0,0,0,0,0,0,0,5,2,3,5,0,0,0,2,5,0,0,0,0,0,0,0,0,0,0,0,0,0,0,0,0],"split_type":[0,0,0,0,0,0,0,0,0,0,0,0,0,0,0,0,0,0,0,0,0,0,0,0,0,0,0,0,0,0,0,0,0,0,0,0,0,0,0,0,0,0,0,0,0,0,0,0,0,0,0,0,0,0,0],"sum_hessian":[2.7785135E2,2.238026E2,5.4048744E1,1.9416954E2,2.9633055E1,1.4008799E1,4.0039948E1,7.9712585E1,1.1445695E2,1.5689236E1,1.3943819E1,4.779877E0,9.228922E0,2.0991217E1,1.9048729E1,2.0791231E1,5.8921356E1,1.0960845E2,4.8484983E0,1.7681341E0,1.3921102E1,7.382552E0,6.561267E0,7.634287E0,1.5946344E0,1.9241783E1,1.7494338E0,4.1834755E0,1.4865254E1,1.3470245E1,7.320985E0,3.620797E1,2.2713388E1,9.5314964E1,1.4293487E1,4.9887047E0,2.3938472E0,3.4403634E0,1.14248905E1,1.3587037E0,1.2111542E1,2.0293114E0,5.2916737E0,5.145378E0,3.1062592E1,7.5654798E0,1.5147908E1,8.310981E1,1.2205154E1,1.1224601E1,3.0688856E0,2.145729E0,1.2946343E0,8.830347E0,2.5945437E0],"tree_param":{"num_deleted":"0","num_feature":"7","num_nodes":"55","size_leaf_vector":"1"}},{"base_weights":[-2.8662572E-2,-6.437856E-2,5.6246835E-1,3.7372276E-2,-2.734795E-1,7.670099E-1,-9.881807E-2,-1.5487991E-1,4.9237448E-1,-6.4220333E-1,-7.217441E-3,2.2120949E-2,8.625391E-2,-6.441026E-2,5.7090707E-2,2.502912E-2,-4.594961E-1,-3.094844E-3,7.0657134E-1,-9.0812124E-2,-2.939335E-1,6.7752546E-1,-1.2111872E-1,5.302205E-1,-1.4019938E-1,-7.8060347E-1,3.0107265E-2,2.687771E-1,-7.536067E-2,2.2635053E-1,8.0784565E-1,6.422453E-2,-4.7450963E-1,7.828993E-2,2.40714E-2,7.83383E-2,-8.3662905E-2,-5.8108218E-2,6.647061E-2,8.190779E-4,-6.582319E-2,-1.7360358E-2,-9.157037E-2,5.974325E-2,-8.3603956E-2,-6.902198E-2,6.149241E-2,-6.357932E-2,6.305166E-2,8.7960295E-2,3.6298614E-2,4.4877455E-2,-5.869906E-2,-2.4742758E-2,5.896718E-2],"categories":[],"categories_nodes":[],"categories_segments":[],"categories_sizes":[],"default_left":[0,0,0,0,0,0,0,0,0,0,0,0,0,0,0,0,0,0,0,0,0,0,0,0,0,0,0,0,0,0,0,0,0,0,0,0,0,0,0,0,0,0,0,0,0,0,0,0,0,0,0,0,0,0,0],"id":3,"left_children":[1,3,5,7,9,11,13,15,17,19,21,-1,-1,-1,-1,23,25,27,29,-1,31,33,35,37,39,41,43,45,-1,47,49,-1,51,-1,-1,53,-1,-1,-1,-1,-1,-1,-1,-1,-1,-1,-1,-1,-1,-1,-1,-1,-1,-1,-1],"loss_changes":[5.6302943E0,5.3454804E0,2.1316814E0,1.4908553E1,8.065716E0,4.2042875E-1,2.0025213E0,6.585518E0,5.3726053E0,2.924223E0,3.8837872E0,0E0,0E0,0E0,0E0,6.4485927E0,7.034169E0,3.5221486E0,1.5355892E0,0E0,3.0767317E0,1.385088E-1,6.1509743E0,3.2302756E0,4.489623E0,2.0525303E0,9.651677E0,4.6335845E0,0E0,3.0292733E0,5.997791E-1,0E0,1.7506855E0,0E0,0E0,5.8527336E0,0E0,0E0,0E0,0E0,0E0,0E0,0E0,0E0,0E0,0E0,0E0,0E0,0E0,0E0,0E0,0E0,0E0,0E0,0E0],"parents":[2147483647,0,0,1,1,2,2,3,3,4,4,5,5,6,6,7,7,8,8,9,9,10,10,15,15,16,16,17,17,18,18,20,20,21,21,22,22,23,23,24,24,25,25,26,26,27,27,29,29,30,30,32,32,35,35],"right_children":[2,4,6,8,10,12,14,16,18,20,22,-1,-1,-1,-1,24,26,28,30,-1,32,34,36,38,40,42,44,46,-1,48,50,-1,52,-1,-1,54,-1,-1,-1,-1,-1,-1,-1,-1,-1,-1,-1,-1,-1,-1,-1,-1,-1,-1,-1],"split_conditions":[8.9E1,6.4E1,5E0,4.6E1,7.5E1,1.6E1,9.2E1,2.9E1,3E0,1.7487767E9,7.6E1,2.2120949E-2,8.625391E-2,-6.441026E-2,5.7090707E-2,2E0,1.7492388E9,5E0,5E1,-9.0812124E-2,1.748919E9,9E0,5E0,6E0,6E0,1.7485692E9,3E0,3E0,-7.536067E-2,1.7485614E9,6.2E1,6.422453E-2,1.1E1,7.828993E-2,2.40714E-2,1.7489112E9,-8.3662905E-2,-5.8108218E-2,6.647061E-2,8.190779E-4,-6.582319E-2,-1.7360358E-2,-9.157037E-2,5.974325E-2,-8.3603956E-2,-6.902198E-2,6.149241E-2,-6.357932E-2,6.305166E-2,8.7960295E-2,3.6298614E-2,4.4877455E-2,-5.869906E-2,-2.4742758E-2,5.896718E-2],"split_indices":[4,4,1,4,4,3,4,4,6,5,4,0,0,0,0,1,5,1,4,0,5,3,1,4,6,5,1,1,0,5,4,0,3,0,0,5,0,0,0,0,0,0,0,0,0,0,0,0,0,0,0,0,0,0,0],"split_type":[0,0,0,0,0,0,0,0,0,0,0,0,0,0,0,0,0,0,0,0,0,0,0,0,0,0,0,0,0,0,0,0,0,0,0,0,0,0,0,0,0,0,0,0,0,0,0,0,0,0,0,0,0,0,0],"sum_hessian":[2.639614E2,2.4976195E2,1.4199462E1,1.6856003E2,8.1201904E1,1.0722902E1,3.4765604E0,1.18956795E2,4.9603237E1,3.3457508E1,4.77444E1,2.091107E0,8.631795E0,1.937402E0,1.5391582E0,7.536398E1,4.359281E1,1.5269094E1,3.4334145E1,1.8060259E1,1.5397249E1,6.103499E0,4.16409E1,1.8029427E1,5.733456E1,2.596757E1,1.762524E1,1.167993E1,3.5891645E0,6.5431213E0,2.7791023E1,2.07629E0,1.332096E1,4.278962E0,1.8245369E0,3.325984E1,8.3810625E0,1.5878311E0,1.6441597E1,4.5333103E1,1.2001456E1,5.143413E0,2.0824156E1,1.0837156E1,6.7880845E0,2.8340933E0,8.845837E0,1.9054425E0,4.6376786E0,2.3089373E1,4.701651E0,1.1219344E0,1.2199025E1,2.063169E1,1.2628148E1],"tree_param":{"num_deleted":"0","num_feature":"7","num_nodes":"55","size_leaf_vector":"1"}},{"base_weights":[1.7793568E-2,-6.2189335E-1,6.706164E-2,-7.7239317E-1,3.3701103E-2,-1.8809222E-1,1.7527129E-1,4.4584596E-3,-8.796331E-2,-7.0171714E-2,-6.2452704E-1,9.1065966E-2,5.240296E-1,-2.4881817E-1,3.316614E-1,-7.693441E-2,3.2143172E-2,4.9755844E-1,-5.038384E-3,5.7427955E-1,-4.6333324E-2,-5.548013E-1,1.0910397E-1,4.809254E-1,-6.0062595E-2,8.154301E-2,3.0283627E-1,1.0689458E-1,-5.4546016E-1,6.2203586E-1,8.3592966E-2,1.54129E-2,-7.5738065E-2,7.887003E-2,-2.477124E-2,-5.063022E-2,5.9036363E-2,-6.912942E-2,5.7461638E-2,-9.216218E-3,3.4563877E-2,-6.6181035E-3,-8.778023E-2,2.9322272E-2,6.998831E-2,5.2874397E-2,-5.0608493E-2],"categories":[],"categories_nodes":[],"categories_segments":[],"categories_sizes":[],"default_left":[0,0,0,0,0,0,0,0,0,0,0,0,0,0,0,0,0,0,0,0,0,0,0,0,0,0,0,0,0,0,0,0,0,0,0,0,0,0,0,0,0,0,0,0,0,0,0],"id":4,"left_children":[1,3,5,7,-1,9,11,-1,-1,13,15,17,19,21,23,-1,-1,25,27,29,-1,31,33,35,-1,-1,37,39,41,43,45,-1,-1,-1,-1,-1,-1,-1,-1,-1,-1,-1,-1,-1,-1,-1,-1],"loss_changes":[7.935735E0,2.8592997E0,6.4790053E0,1.4296188E0,0E0,3.5591466E0,4.781964E0,0E0,0E0,4.1200075E0,2.270021E0,5.224945E0,1.8425665E0,4.387087E0,2.757207E0,0E0,0E0,1.3359032E0,6.658546E0,6.669893E-1,0E0,3.1990404E0,4.8131423E0,2.0108287E0,0E0,0E0,5.1116424E0,4.3672276E0,2.9500704E0,5.0652313E-1,1.2851677E0,0E0,0E0,0E0,0E0,0E0,0E0,0E0,0E0,0E0,0E0,0E0,0E0,0E0,0E0,0E0,0E0],"parents":[2147483647,0,0,1,1,2,2,3,3,5,5,6,6,9,9,10,10,11,11,12,12,13,13,14,14,17,17,18,18,19,19,21,21,22,22,23,23,26,26,27,27,28,28,29,29,30,30],"right_children":[2,4,6,8,-1,10,12,-1,-1,14,16,18,20,22,24,-1,-1,26,28,30,-1,32,34,36,-1,-1,38,40,42,44,46,-1,-1,-1,-1,-1,-1,-1,-1,-1,-1,-1,-1,-1,-1,-1,-1],"split_conditions":[1.506E1,5E0,3E0,1.748689E9,3.3701103E-2,5E0,1.7493152E9,4.4584596E-3,-8.796331E-2,4E0,1.801E2,4.936E1,5.9E1,4.4E1,1.749616E9,-7.693441E-2,3.2143172E-2,2.444E1,4.6E1,1.7504786E9,-4.6333324E-2,6E0,4.9E1,2.613E1,-6.0062595E-2,8.154301E-2,3.144E1,1.4783E2,1.338E2,9E0,5.4E1,1.54129E-2,-7.5738065E-2,7.887003E-2,-2.477124E-2,-5.063022E-2,5.9036363E-2,-6.912942E-2,5.7461638E-2,-9.216218E-3,3.4563877E-2,-6.6181035E-3,-8.778023E-2,2.9322272E-2,6.998831E-2,5.2874397E-2,-5.0608493E-2],"split_indices":[0,1,6,5,0,1,5,0,0,1,0,0,2,2,5,0,0,0,2,5,0,2,2,0,0,0,0,0,0,2,2,0,0,0,0,0,0,0,0,0,0,0,0,0,0,0,0],"split_type":[0,0,0,0,0,0,0,0,0,0,0,0,0,0,0,0,0,0,0,0,0,0,0,0,0,0,0,0,0,0,0,0,0,0,0,0,0,0,0,0,0,0,0,0,0,0,0],"sum_hessian":[2.4947577E2,1.7009188E1,2.3246658E2,1.4869869E1,2.1393185E0,6.9008705E1,1.6345787E2,1.7931912E0,1.3076678E1,5.5243282E1,1.3765421E1,1.3268347E2,3.0774403E1,3.8505394E1,1.6737888E1,1.2099769E1,1.6656522E0,2.457239E1,1.08111084E2,2.9682158E1,1.0922455E0,2.046234E1,1.8043055E1,1.4845234E1,1.8926538E0,8.1235485E0,1.6448841E1,9.022562E1,1.7885464E1,2.6805605E1,2.876552E0,4.600827E0,1.5861512E1,5.795156E0,1.2247899E1,1.11955E0,1.3725684E1,3.2000313E0,1.324881E1,4.9537178E1,4.0688442E1,7.8147492E0,1.0070714E1,6.043897E0,2.076171E1,1.6980325E0,1.1785197E0],"tree_param":{"num_deleted":"0","num_feature":"7","num_nodes":"47","size_leaf_vector":"1"}},{"base_weights":[2.5704606E-2,-1.8507212E-1,1.3650231E-1,-4.9238658E-1,-3.4245245E-2,6.8824387E-1,8.152154E-2,-6.517279E-1,7.9179876E-2,-4.2736897E-1,7.0474535E-2,2.6227733E-1,8.440786E-2,4.1894305E-1,-1.892283E-2,-1.8900678E-1,-7.481053E-1,4.2468482E-1,-5.53737E-2,6.438845E-2,-8.025799E-2,-4.055057E-1,2.9019207E-1,6.3540906E-2,-1.6669102E-2,5.249386E-1,-6.626991E-2,-3.7729037E-1,8.426143E-2,5.2253883E-2,-6.0677707E-2,-4.2312768E-1,-8.483558E-2,1.8674528E-2,5.525378E-2,-8.032228E-2,4.7955245E-1,-1.1017436E-1,5.085871E-1,8.144583E-1,2.3436254E-1,-6.6957057E-1,5.02376E-1,2.9370472E-1,-2.1371566E-1,4.1395195E-2,-6.770729E-2,6.71606E-2,1.6095908E-2,7.449641E-2,-5.9987515E-2,6.1873883E-2,-5.0400168E-2,2.9232377E-2,8.64423E-2,4.7201656E-2,-6.5053165E-2,1.1872142E-2,-7.7319846E-2,6.9825664E-2,1.7413403E-3,5.253395E-2,-5.7983994E-3,-6.0664892E-2,4.1283943E-2],"categories":[],"categories_nodes":[],"categories_segments":[],"categories_sizes":[],"default_left":[0,0,0,0,0,0,0,0,0,0,0,0,0,0,0,0,0,0,0,0,0,0,0,0,0,0,0,0,0,0,0,0,0,0,0,0,0,0,0,0,0,0,0,0,0,0,0,0,0,0,0,0,0,0,0,0,0,0,0,0,0,0,0,0,0],"id":5,"left_children":[1,3,5,7,9,11,13,15,17,19,21,23,-1,25,27,29,31,33,-1,-1,-1,35,37,-1,-1,39,-1,41,43,-1,-1,45,-1,-1,-1,-1,47,49,51,53,55,57,59,61,63,-1,-1,-1,-1,-1,-1,-1,-1,-1,-1,-1,-1,-1,-1,-1,-1,-1,-1,-1,-1],"loss_changes":[5.6678877E0,3.8614938E0,4.7654905E0,2.5535622E0,2.3849776E0,7.2580147E-1,4.945158E0,8.21475E-1,1.7397897E0,5.409937E0,4.9313107E0,9.498816E-1,0E0,4.1840835E0,4.2182293E0,1.8211898E0,2.1218586E-1,4.94352E-2,0E0,0E0,0E0,5.6489496E0,2.8605196E0,0E0,0E0,2.4197721E0,0E0,6.8907967E0,5.5998397E0,0E0,0E0,1.5829502E0,0E0,0E0,0E0,0E0,2.138946E-1,5.531754E0,2.6464953E0,1.4229298E-1,3.859382E0,1.6899271E0,6.460743E-1,4.309089E0,9.4088125E0,0E0,0E0,0E0,0E0,0E0,0E0,0E0,0E0,0E0,0E0,0E0,0E0,0E0,0E0,0E0,0E0,0E0,0E0,0E0,0E0],"parents":[2147483647,0,0,1,1,2,2,3,3,4,4,5,5,6,6,7,7,8,8,9,9,10,10,11,11,13,13,14,14,15,15,16,16,17,17,21,21,22,22,25,25,27,27,28,28,31,31,36,36,37,37,38,38,39,39,40,40,41,41,42,42,43,43,44,44],"right_children":[2,4,6,8,10,12,14,16,18,20,22,24,-1,26,28,30,32,34,-1,-1,-1,36,38,-1,-1,40,-1,42,44,-1,-1,46,-1,-1,-1,-1,48,50,52,54,56,58,60,62,64,-1,-1,-1,-1,-1,-1,-1,-1,-1,-1,-1,-1,-1,-1,-1,-1,-1,-1,-1,-1],"split_conditions":[3E0,1.4E1,6E0,5.1E1,1.6E1,3.8E1,1.9E1,1E0,6E1,5.581E1,1E0,5E0,8.440786E-2,4.8E1,4.4E1,6E0,3E0,1.3964E2,-5.53737E-2,6.438845E-2,-8.025799E-2,1.618E2,2.6E1,6.3540906E-2,-1.6669102E-2,5E0,-6.626991E-2,4.8E1,2.6E1,5.2253883E-2,-6.0677707E-2,6.142E1,-8.483558E-2,1.8674528E-2,5.525378E-2,-8.032228E-2,1.6436E2,1.6E1,5.7E1,4E0,4E1,4.133E1,1.4809E2,1.2945E2,4E1,4.1395195E-2,-6.770729E-2,6.71606E-2,1.6095908E-2,7.449641E-2,-5.9987515E-2,6.1873883E-2,-5.0400168E-2,2.9232377E-2,8.64423E-2,4.7201656E-2,-6.5053165E-2,1.1872142E-2,-7.7319846E-2,6.9825664E-2,1.7413403E-3,5.253395E-2,-5.7983994E-3,-6.0664892E-2,4.1283943E-2],"split_indices":[6,3,2,2,4,3,4,6,2,0,6,3,0,3,4,2,3,0,0,0,0,0,3,0,0,6,0,2,3,0,0,0,0,0,0,0,0,3,2,4,2,0,0,0,3,0,0,0,0,0,0,0,0,0,0,0,0,0,0,0,0,0,0,0,0],"split_type":[0,0,0,0,0,0,0,0,0,0,0,0,0,0,0,0,0,0,0,0,0,0,0,0,0,0,0,0,0,0,0,0,0,0,0,0,0,0,0,0,0,0,0,0,0,0,0,0,0,0,0,0,0,0,0,0,0,0,0,0,0,0,0,0,0],"sum_hessian":[2.4061716E2,8.26731E1,1.5794406E2,2.6471668E1,5.6201435E1,1.3269042E1,1.4467502E2,2.0591047E1,5.880622E0,1.1173697E1,4.5027737E1,4.272746E0,8.996296E0,3.246038E1,1.1221464E2,4.0599203E0,1.6531126E1,4.0168533E0,1.8637687E0,2.7126973E0,8.461E0,1.3953754E1,3.1073982E1,2.027717E0,2.2450287E0,3.003207E1,2.428309E0,2.4492762E1,8.772188E1,1.4091234E0,2.650797E0,5.1281466E0,1.140298E1,2.264029E0,1.7528241E0,9.691269E0,4.2624855E0,1.1142621E1,1.9931362E1,1.4140281E1,1.5891789E1,1.8563606E1,5.929156E0,5.1522137E1,3.619974E1,1.0469619E0,4.081185E0,1.9680663E0,2.2944193E0,3.8675904E0,7.2750306E0,1.8326696E1,1.6046656E0,1.8332536E0,1.2307027E1,1.2895152E1,2.9966373E0,2.1398935E0,1.6423714E1,3.9100413E0,2.0191145E0,3.0765268E1,2.075687E1,2.226709E1,1.3932651E1],"tree_param":{"num_deleted":"0","num_feature":"7","num_nodes":"65","size_leaf_vector":"1"}},{"base_weights":[-3.067281E-2,-5.6362557E-3,-4.943763E-1,-1.698983E-1,6.624759E-2,-7.283147E-2,-7.356841E-2,-6.478794E-1,-2.5360266E-2,-1.733914E-1,1.9784471E-1,-4.531419E-2,5.2702367E-2,-7.636347E-2,4.3093767E-2,6.0268987E-2,-7.466668E-2,-3.299333E-2,-6.346853E-1,7.58402E-1,5.9947446E-2,-3.394141E-1,1.7114943E-1,1.2834483E-1,-7.66835E-2,4.6255648E-2,-7.927143E-2,7.958534E-2,1.0681537E-2,-1.9017911E-1,2.895531E-1,-5.845965E-2,2.4316369E-2,-1.24559505E-2,3.446619E-2,-6.7032814E-2,3.06368E-2,-3.623534E-2,2.5487456E-2,6.882612E-2,7.130805E-3],"categories":[],"categories_nodes":[],"categories_segments":[],"categories_sizes":[],"default_left":[0,0,0,0,0,0,0,0,0,0,0,0,0,0,0,0,0,0,0,0,0,0,0,0,0,0,0,0,0,0,0,0,0,0,0,0,0,0,0,0,0],"id":6,"left_children":[1,3,5,7,9,11,-1,13,15,17,19,-1,-1,-1,-1,21,-1,23,25,27,29,31,33,35,-1,-1,-1,-1,-1,37,39,-1,-1,-1,-1,-1,-1,-1,-1,-1,-1],"loss_changes":[2.4897091E0,2.4283948E0,1.0639908E0,4.307989E0,4.547486E0,1.4044433E0,0E0,2.1388907E0,3.0777674E0,3.299169E0,7.1316843E0,0E0,0E0,0E0,0E0,2.0442276E0,0E0,4.876559E0,2.4313145E0,3.602333E-1,4.397001E0,1.5802652E0,1.8771523E0,5.031052E0,0E0,0E0,0E0,0E0,0E0,2.9113188E0,3.4154725E0,0E0,0E0,0E0,0E0,0E0,0E0,0E0,0E0,0E0,0E0],"parents":[2147483647,0,0,1,1,2,2,3,3,4,4,5,5,7,7,8,8,9,9,10,10,15,15,17,17,18,18,19,19,20,20,21,21,22,22,23,23,29,29,30,30],"right_children":[2,4,6,8,10,12,-1,14,16,18,20,-1,-1,-1,-1,22,-1,24,26,28,30,32,34,36,-1,-1,-1,-1,-1,38,40,-1,-1,-1,-1,-1,-1,-1,-1,-1,-1],"split_conditions":[5.7E1,3E0,1.2E1,1.4E1,1.748663E9,9E0,-7.356841E-2,4.7E1,1.749616E9,3.5E1,1.7487395E9,-4.531419E-2,5.2702367E-2,-7.636347E-2,4.3093767E-2,1.7489157E9,-7.466668E-2,1.7486291E9,8E0,4.6E1,1.7491827E9,3.6E1,2.5E1,1.2E1,-7.66835E-2,4.6255648E-2,-7.927143E-2,7.958534E-2,1.0681537E-2,3.2E1,3E0,-5.845965E-2,2.4316369E-2,-1.24559505E-2,3.446619E-2,-6.7032814E-2,3.06368E-2,-3.623534E-2,2.5487456E-2,6.882612E-2,7.130805E-3],"split_indices":[2,6,3,3,5,3,0,2,5,2,5,0,0,0,0,5,0,5,3,2,5,2,3,3,0,0,0,0,0,3,1,0,0,0,0,0,0,0,0,0,0],"split_type":[0,0,0,0,0,0,0,0,0,0,0,0,0,0,0,0,0,0,0,0,0,0,0,0,0,0,0,0,0,0,0,0,0,0,0,0,0,0,0,0,0],"sum_hessian":[2.1369377E2,2.0370724E2,9.9865265E0,6.159432E1,1.4211293E2,4.109459E0,5.8770676E0,1.3492565E1,4.8101753E1,5.0264126E1,9.18488E1,2.6646452E0,1.4448138E0,1.2448969E1,1.0435966E0,4.3816555E1,4.285198E0,3.9357048E1,1.0907075E1,1.7245495E1,7.460331E1,9.068149E0,3.474841E1,3.294013E1,6.41692E0,1.1305187E0,9.776556E0,1.6098772E1,1.1467223E0,3.578823E1,3.8815075E1,6.3797255E0,2.6884227E0,1.2953873E1,2.1794537E1,5.499972E0,2.7440157E1,2.5939177E1,9.849056E0,1.2968866E1,2.5846209E1],"tree_param":{"num_deleted":"0","num_feature":"7","num_nodes":"41","size_leaf_vector":"1"}},{"base_weights":[5.308562E-3,-4.9729925E-1,3.8671672E-2,-6.581627E-1,4.9855195E-2,5.294561E-1,7.8083836E-3,-2.295931E-3,-7.677721E-2,7.415708E-2,7.770479E-2,-2.5614077E-1,5.2689057E-2,-5.276068E-2,5.8297556E-2,6.3162394E-2,-6.0245E-1,7.364172E-2,-6.6274606E-2,-5.6940474E-2,2.1112439E-1,-8.0624685E-2,4.046522E-2,1.0153604E-1,-4.0372527E-1,5.207258E-2,-5.831392E-3,1.2557552E-3,4.170539E-2,5.4334413E-2,-7.01926E-2],"categories":[],"categories_nodes":[],"categories_segments":[],"categories_sizes":[],"default_left":[0,0,0,0,0,0,0,0,0,0,0,0,0,0,0,0,0,0,0,0,0,0,0,0,0,0,0,0,0,0,0],"id":7,"left_children":[1,3,5,7,-1,9,11,-1,-1,-1,13,15,17,-1,-1,19,21,23,-1,-1,25,-1,-1,27,29,-1,-1,-1,-1,-1,-1],"loss_changes":[3.6294067E0,2.486576E0,3.0680325E0,8.200221E-1,0E0,1.0908074E0,2.2860217E0,0E0,0E0,0E0,1.8204192E0,3.139656E0,2.519E0,0E0,0E0,1.5708282E0,3.1073966E0,2.1848116E0,0E0,0E0,1.1390108E0,0E0,0E0,4.287562E0,2.9483514E0,0E0,0E0,0E0,0E0,0E0,0E0],"parents":[2147483647,0,0,1,1,2,2,3,3,5,5,6,6,10,10,11,11,12,12,15,15,16,16,17,17,20,20,23,23,24,24],"right_children":[2,4,6,8,-1,10,12,-1,-1,-1,14,16,18,-1,-1,20,22,24,-1,-1,26,-1,-1,28,30,-1,-1,-1,-1,-1,-1],"split_conditions":[1.507E1,5E0,1.748504E9,1.9E1,4.9855195E-2,3.2E1,1.7486015E9,-2.295931E-3,-7.677721E-2,7.415708E-2,3.7E1,1.313E2,6E1,-5.276068E-2,5.8297556E-2,3E0,5E0,1.904E2,-6.6274606E-2,-5.6940474E-2,4E0,-8.0624685E-2,4.046522E-2,1.7098E2,1.7486033E9,5.207258E-2,-5.831392E-3,1.2557552E-3,4.170539E-2,5.4334413E-2,-7.01926E-2],"split_indices":[0,1,5,2,0,2,5,0,0,0,2,0,2,0,0,1,1,0,0,0,1,0,0,0,5,0,0,0,0,0,0],"split_type":[0,0,0,0,0,0,0,0,0,0,0,0,0,0,0,0,0,0,0,0,0,0,0,0,0,0,0,0,0,0,0],"sum_hessian":[2.1429431E2,1.2473788E1,2.0182051E2,1.1031006E1,1.4427831E0,1.0984908E1,1.9083562E2,1.8013518E0,9.229653E0,7.038509E0,3.946399E0,2.7049107E1,1.637865E2,1.7753425E0,2.1710565E0,1.4498682E1,1.2550425E1,1.5999777E2,3.7887244E0,2.2085164E0,1.2290166E1,1.0604034E1,1.9463896E0,1.5190851E2,8.089278E0,5.284878E0,7.005288E0,1.1930372E2,3.2604782E1,1.7402527E0,6.3490252E0],"tree_param":{"num_deleted":"0","num_feature":"7","num_nodes":"31","size_leaf_vector":"1"}},{"base_weights":[-3.825768E-2,-4.781808E-1,5.028608E-3,-2.5318065E-1,-7.1801275E-2,2.1241574E-1,-5.111446E-2,-5.524361E-1,1.7012051E-1,-3.1080868E-2,7.499735E-1,-1.3402836E-1,1.6013612E-1,-1.4704193E-2,-6.8101935E-2,-7.331633E-2,4.800799E-2,1.0486045E-1,-7.222793E-2,8.071053E-2,1.6753387E-2,-4.0836552E-1,-1.6863624E-2,-2.994632E-1,2.3790964E-1,4.5887124E-2,-4.8609972E-2,4.643744E-1,-1.640314E-1,7.879058E-2,-6.148144E-1,3.0370694E-1,-2.0464124E-1,4.2166263E-2,-5.0671625E-1,5.3327054E-1,6.784408E-2,7.3295414E-2,-3.669082E-3,-6.257279E-2,1.4659307E-6,4.025095E-2,-4.836814E-2,-7.768973E-2,-3.4066405E-2,5.1544674E-2,-2.289751E-2,-7.602289E-2,-3.015266E-3,-6.647485E-2,9.896132E-3,1.450395E-3,7.172417E-2,2.2103053E-2,-7.111354E-2],"categories":[],"categories_nodes":[],"categories_segments":[],"categories_sizes":[],"default_left":[0,0,0,0,0,0,0,0,0,0,0,0,0,0,0,0,0,0,0,0,0,0,0,0,0,0,0,0,0,0,0,0,0,0,0,0,0,0,0,0,0,0,0,0,0,0,0,0,0,0,0,0,0,0,0],"id":8,"left_children":[1,3,5,7,-1,9,11,13,15,17,19,21,23,-1,-1,25,-1,27,-1,-1,-1,29,31,33,35,-1,-1,37,39,41,43,45,47,-1,49,51,53,-1,-1,-1,-1,-1,-1,-1,-1,-1,-1,-1,-1,-1,-1,-1,-1,-1,-1],"loss_changes":[3.926273E0,8.148494E-1,2.2066512E0,1.4967697E0,0E0,5.3076277E0,2.6350842E0,2.503085E-1,4.3895632E-1,2.776734E0,2.8491163E-1,3.4549556E0,1.5909008E0,0E0,0E0,1.072026E0,0E0,2.4827187E0,0E0,0E0,0E0,3.2857833E0,4.6679525E0,1.1994379E0,1.8182597E0,0E0,0E0,1.4955482E0,1.1346741E0,2.1006105E0,7.4497986E-1,3.3512282E0,4.7125587E0,0E0,5.9964454E-1,1.2631342E0,3.0896115E0,0E0,0E0,0E0,0E0,0E0,0E0,0E0,0E0,0E0,0E0,0E0,0E0,0E0,0E0,0E0,0E0,0E0,0E0],"parents":[2147483647,0,0,1,1,2,2,3,3,5,5,6,6,7,7,8,8,9,9,10,10,11,11,12,12,15,15,17,17,21,21,22,22,23,23,24,24,27,27,28,28,29,29,30,30,31,31,32,32,34,34,35,35,36,36],"right_children":[2,4,6,8,-1,10,12,14,16,18,20,22,24,-1,-1,26,-1,28,-1,-1,-1,30,32,34,36,-1,-1,38,40,42,44,46,48,-1,50,52,54,-1,-1,-1,-1,-1,-1,-1,-1,-1,-1,-1,-1,-1,-1,-1,-1,-1,-1],"split_conditions":[1E0,3.1E1,2E1,4.6E1,-7.1801275E-2,1.7E1,1.7491949E9,1.6E1,4E0,1.749415E9,4.3E1,4.6E1,2E0,-1.4704193E-2,-6.8101935E-2,4.8E1,4.800799E-2,2.3E1,-7.222793E-2,8.071053E-2,1.6753387E-2,2E0,6.4E1,2.7E1,2.1E1,4.5887124E-2,-4.8609972E-2,5E0,2.9E1,5E0,3.5E1,1.7487395E9,7.2E1,4.2166263E-2,5.8E1,1.7492388E9,1.7497578E9,7.3295414E-2,-3.669082E-3,-6.257279E-2,1.4659307E-6,4.025095E-2,-4.836814E-2,-7.768973E-2,-3.4066405E-2,5.1544674E-2,-2.289751E-2,-7.602289E-2,-3.015266E-3,-6.647485E-2,9.896132E-3,1.450395E-3,7.172417E-2,2.2103053E-2,-7.111354E-2],"split_indices":[6,3,4,4,0,4,5,4,1,5,3,4,6,0,0,4,0,3,0,0,0,6,4,4,3,0,0,1,3,1,4,5,4,0,4,5,5,0,0,0,0,0,0,0,0,0,0,0,0,0,0,0,0,0,0],"split_type":[0,0,0,0,0,0,0,0,0,0,0,0,0,0,0,0,0,0,0,0,0,0,0,0,0,0,0,0,0,0,0,0,0,0,0,0,0,0,0,0,0,0,0,0,0,0,0,0,0,0,0,0,0,0,0],"sum_hessian":[2.0505696E2,1.7469156E1,1.8758781E2,1.0073907E1,7.3952503E0,3.937113E1,1.4821667E2,5.7229586E0,4.350948E0,2.7745485E1,1.1625645E1,1.06702484E2,4.1514194E1,1.8942782E0,3.8286805E0,2.8646026E0,1.4863454E0,2.389436E1,3.8511267E0,1.0235869E1,1.3897754E0,3.118904E1,7.551344E1,5.5957713E0,3.5918423E1,1.2025476E0,1.6620549E0,9.913206E0,1.39811535E1,9.467348E0,2.1721691E1,2.7665695E1,4.7847748E1,1.01826E0,4.5775113E0,1.2344124E1,2.3574299E1,6.1525426E0,3.760663E0,2.927516E0,1.10536375E1,6.1895027E0,3.2778456E0,1.2498502E1,9.223189E0,1.9819748E1,7.8459463E0,1.0633335E1,3.7214413E1,3.5529532E0,1.0245581E0,3.5140238E0,8.8301E0,2.0298794E1,3.275505E0],"tree_param":{"num_deleted":"0","num_feature":"7","num_nodes":"55","size_leaf_vector":"1"}},{"base_weights":[-3.041049E-3,-5.016146E-1,3.823533E-2,-1.4054947E-1,-5.76396E-1,-4.7239494E-1,6.683242E-2,-4.5883995E-2,2.4422573E-2,-9.043236E-3,-6.40991E-1,1.7972682E-2,-6.71284E-2,2.8115606E-1,1.7428534E-2,-3.4753138E-1,-7.2470985E-2,3.714612E-1,-5.7815682E-2,-4.8150912E-2,3.5720757E-1,-5.4032158E-2,6.4902254E-3,4.8260808E-1,-1.2560645E-1,-7.1024634E-2,-6.4739226E-3,-3.7199455E-1,5.013056E-1,7.03671E-2,2.8393019E-2,-4.5914438E-2,5.103156E-2,7.722313E-2,-4.437597E-3,1.110062E-2,-6.474339E-2,6.736505E-2,1.6649662E-2],"categories":[],"categories_nodes":[],"categories_segments":[],"categories_sizes":[],"default_left":[0,0,0,0,0,0,0,0,0,0,0,0,0,0,0,0,0,0,0,0,0,0,0,0,0,0,0,0,0,0,0,0,0,0,0,0,0,0,0],"id":9,"left_children":[1,3,5,7,9,11,13,-1,-1,-1,15,-1,-1,17,19,21,-1,23,-1,25,27,-1,-1,29,31,-1,33,35,37,-1,-1,-1,-1,-1,-1,-1,-1,-1,-1],"loss_changes":[4.263312E0,3.4666133E-1,2.826407E0,6.068554E-1,3.4380722E-1,1.453212E0,1.9234588E0,0E0,0E0,0E0,2.1660805E-2,0E0,0E0,2.857074E0,3.3388405E0,3.843313E-1,0E0,1.7965531E0,0E0,3.4676812E0,2.7330592E0,0E0,0E0,9.3710804E-1,1.620505E0,0E0,3.5580454E0,6.802464E-1,1.0801172E0,0E0,0E0,0E0,0E0,0E0,0E0,0E0,0E0,0E0,0E0],"parents":[2147483647,0,0,1,1,2,2,3,3,4,4,5,5,6,6,10,10,13,13,14,14,15,15,17,17,19,19,20,20,23,23,24,24,26,26,27,27,28,28],"right_children":[2,4,6,8,10,12,14,-1,-1,-1,16,-1,-1,18,20,22,-1,24,-1,26,28,-1,-1,30,32,-1,34,36,38,-1,-1,-1,-1,-1,-1,-1,-1,-1,-1],"split_conditions":[1E0,6E0,7E0,4.6E1,1.2E1,1.7485638E9,2.2E1,-4.5883995E-2,2.4422573E-2,-9.043236E-3,2.1E1,1.7972682E-2,-6.71284E-2,1.749415E9,1.7494034E9,1.7489071E9,-7.2470985E-2,5E0,-5.7815682E-2,2.6E1,2E0,-5.4032158E-2,6.4902254E-3,2.3E1,1.7490825E9,-7.1024634E-2,2.8E1,2.6E1,4E0,7.03671E-2,2.8393019E-2,-4.5914438E-2,5.103156E-2,7.722313E-2,-4.437597E-3,1.110062E-2,-6.474339E-2,6.736505E-2,1.6649662E-2],"split_indices":[6,3,4,4,4,5,4,0,0,0,3,0,0,5,5,5,0,1,0,4,1,0,0,3,5,0,4,3,6,0,0,0,0,0,0,0,0,0,0],"split_type":[0,0,0,0,0,0,0,0,0,0,0,0,0,0,0,0,0,0,0,0,0,0,0,0,0,0,0,0,0,0,0,0,0,0,0,0,0,0,0],"sum_hessian":[2.05233E2,1.4839192E1,1.903938E2,3.040122E0,1.179907E1,9.274216E0,1.8111958E2,1.5584588E0,1.4816633E0,1.6659231E0,1.0133147E1,2.1899862E0,7.0842295E0,3.3050243E1,1.4806934E2,3.3925214E0,6.7406263E0,3.0421024E1,2.6292205E0,1.24833916E2,2.3235428E1,2.1005485E0,1.2919729E0,2.488557E1,5.535452E0,6.4426117E0,1.18391304E2,3.5729785E0,1.9662449E1,1.0576098E1,1.4309472E1,3.8133535E0,1.7220986E0,4.5957747E0,1.1379553E2,1.5143874E0,2.0585911E0,1.2312481E1,7.349968E0],"tree_param":{"num_deleted":"0","num_feature":"7","num_nodes":"39","size_leaf_vector":"1"}},{"base_weights":[-5.2746758E-2,-5.2537405E-1,-1.2447783E-2,-6.361163E-1,-4.531068E-3,-4.7758594E-1,1.3725881E-2,-7.3035792E-3,-7.224418E-2,4.533951E-2,-4.6565358E-2,1.8047456E-2,-5.942361E-1,-5.6215124E-3,6.184411E-2,-7.042227E-2,-8.333199E-4,-4.4605997E-1,1.5877709E-2,1.5501968E-2,-6.8188384E-2,2.1306297E-1,-5.5266332E-2,4.1809678E-2,-1.2408207E-3,-3.765547E-2,3.2286874E-3],"categories":[],"categories_nodes":[],"categories_segments":[],"categories_sizes":[],"default_left":[0,0,0,0,0,0,0,0,0,0,0,0,0,0,0,0,0,0,0,0,0,0,0,0,0,0,0],"id":10,"left_children":[1,3,5,7,9,11,13,-1,-1,-1,-1,-1,15,17,-1,-1,-1,19,21,-1,-1,23,25,-1,-1,-1,-1],"loss_changes":[3.9115167E0,9.279356E-1,2.326666E0,5.937743E-1,1.0212996E0,8.8871765E-1,2.125714E0,0E0,0E0,0E0,0E0,0E0,5.663998E-1,1.6808413E0,0E0,0E0,0E0,1.2766999E0,2.3896067E0,0E0,0E0,2.0922763E0,3.538311E0,0E0,0E0,0E0,0E0],"parents":[2147483647,0,0,1,1,2,2,3,3,4,4,5,5,6,6,12,12,13,13,17,17,18,18,21,21,22,22],"right_children":[2,4,6,8,10,12,14,-1,-1,-1,-1,-1,16,18,-1,-1,-1,20,22,-1,-1,24,26,-1,-1,-1,-1],"split_conditions":[1E0,1.6661E2,1.507E1,1.6E1,1.7815E2,1.748689E9,9.2E1,-7.3035792E-3,-7.224418E-2,4.533951E-2,-4.6565358E-2,1.8047456E-2,4E0,7E0,6.184411E-2,-7.042227E-2,-8.333199E-4,1.7485638E9,2.9E1,1.5501968E-2,-6.8188384E-2,4E0,4.6E1,4.1809678E-2,-1.2408207E-3,-3.765547E-2,3.2286874E-3],"split_indices":[6,0,0,4,0,5,4,0,0,0,0,0,1,4,0,0,0,5,4,0,0,1,4,0,0,0,0],"split_type":[0,0,0,0,0,0,0,0,0,0,0,0,0,0,0,0,0,0,0,0,0,0,0,0,0,0,0],"sum_hessian":[2.0471118E2,1.5137801E1,1.8957338E2,1.2301022E1,2.8367794E0,9.180357E0,1.8039304E2,1.880569E0,1.0420453E1,1.4317307E0,1.4050487E0,1.2999246E0,7.880432E0,1.7576042E2,4.632614E0,6.4648886E0,1.4155434E0,7.261047E0,1.6849937E2,2.1425793E0,5.1184673E0,4.4146526E1,1.2435284E2,2.2673706E1,2.1472822E1,2.5923218E1,9.842962E1],"tree_param":{"num_deleted":"0","num_feature":"7","num_nodes":"27","size_leaf_vector":"1"}},{"base_weights":[1.8100675E-2,-4.6124282E-1,4.2744815E-2,-7.576207E-2,-6.77947E-2,5.968384E-1,1.4110856E-2,-5.2046906E-2,4.8086505E-2,6.848076E-2,8.627643E-3,-6.6514544E-2,3.8243677E-2,-1.0112426E-1,1.1744226E-1,-2.8055066E-1,8.827962E-2,5.8382094E-1,6.855398E-2,-1.1248166E-2,-6.164657E-2,4.7629572E-2,-2.156668E-2,7.5356807E-3,7.052123E-2,-2.354841E-2,1.6455455E-2],"categories":[],"categories_nodes":[],"categories_segments":[],"categories_sizes":[],"default_left":[0,0,0,0,0,0,0,0,0,0,0,0,0,0,0,0,0,0,0,0,0,0,0,0,0,0,0],"id":11,"left_children":[1,3,5,7,-1,9,11,-1,-1,-1,-1,-1,13,15,17,19,21,23,25,-1,-1,-1,-1,-1,-1,-1,-1],"loss_changes":[2.2508507E0,7.272098E-1,2.8561769E0,1.3591968E0,0E0,3.3829784E-1,2.8564503E0,0E0,0E0,0E0,0E0,0E0,1.8631637E0,2.10842E0,2.4089894E0,1.7217534E0,3.710112E0,5.676701E-1,2.9094505E0,0E0,0E0,0E0,0E0,0E0,0E0,0E0,0E0],"parents":[2147483647,0,0,1,1,2,2,3,3,5,5,6,6,12,12,13,13,14,14,15,15,16,16,17,17,18,18],"right_children":[2,4,6,8,-1,10,12,-1,-1,-1,-1,-1,14,16,18,20,22,24,26,-1,-1,-1,-1,-1,-1,-1,-1],"split_conditions":[1.507E1,3.4E1,2.444E1,2.9E1,-6.77947E-2,4.9E1,3.508E1,-5.2046906E-2,4.8086505E-2,6.848076E-2,8.627643E-3,-6.6514544E-2,3E0,2.6E1,6E0,2E0,3.1E1,7E0,2.1E1,-1.1248166E-2,-6.164657E-2,4.7629572E-2,-2.156668E-2,7.5356807E-3,7.052123E-2,-2.354841E-2,1.6455455E-2],"split_indices":[0,2,0,3,0,2,0,0,0,0,0,0,6,3,2,6,3,3,2,0,0,0,0,0,0,0,0],"split_type":[0,0,0,0,0,0,0,0,0,0,0,0,0,0,0,0,0,0,0,0,0,0,0,0,0,0,0],"sum_hessian":[1.87871E2,8.320284E0,1.7955072E2,3.479839E0,4.840445E0,7.847653E0,1.7170306E2,1.9705021E0,1.509337E0,6.403121E0,1.4445318E0,4.979701E0,1.6672337E2,6.031266E1,1.06410706E2,3.0724983E1,2.9587677E1,9.058029E0,9.735268E1,2.1368496E1,9.356488E0,1.2747394E1,1.6840282E1,2.0581136E0,6.999916E0,2.301385E1,7.433883E1],"tree_param":{"num_deleted":"0","num_feature":"7","num_nodes":"27","size_leaf_vector":"1"}},{"base_weights":[-1.7665902E-2,1.3332841E-1,-9.371661E-2,2.8183958E-1,-1.772542E-1,-1.7392269E-1,8.3296455E-2,3.705938E-2,4.0841687E-1,-6.919931E-2,3.920487E-2,-3.296839E-1,3.367799E-2,-1.8260211E-1,5.650838E-1,4.8598248E-1,-5.356363E-1,7.387077E-2,1.495117E-1,-3.883567E-1,3.175718E-1,-3.844789E-1,2.741312E-1,1.3264924E-1,-6.3687555E-2,-1.5825725E-3,-6.299943E-1,-7.889102E-3,6.703875E-1,-8.506812E-3,6.606772E-2,-6.640581E-2,7.5873877E-3,-6.288695E-2,4.1972673E-1,7.2370516E-3,-6.265654E-2,6.16283E-2,6.174946E-2,-2.475148E-1,-5.8939433E-1,5.5564046E-2,-3.943449E-2,-3.5919097E-1,2.5358444E-1,-4.243052E-1,4.0767962E-1,-7.2812594E-2,-2.5033453E-1,7.331159E-2,2.7821257E-3,-4.5139205E-2,4.3916937E-2,6.692329E-3,6.98061E-2,-3.2161877E-2,5.4894477E-2,3.942481E-3,-5.6162514E-2,-1.2313717E-2,-7.6115005E-2,-6.6994004E-2,4.9844217E-2,3.2096084E-2,-4.795378E-2,-6.636995E-2,-5.047654E-3,5.6585636E-2,-4.707752E-2,2.5047616E-3,-4.1575395E-2],"categories":[],"categories_nodes":[],"categories_segments":[],"categories_sizes":[],"default_left":[0,0,0,0,0,0,0,0,0,0,0,0,0,0,0,0,0,0,0,0,0,0,0,0,0,0,0,0,0,0,0,0,0,0,0,0,0,0,0,0,0,0,0,0,0,0,0,0,0,0,0,0,0,0,0,0,0,0,0,0,0,0,0,0,0,0,0,0,0,0,0],"id":12,"left_children":[1,3,5,7,9,11,13,15,17,-1,19,21,23,25,27,29,31,-1,33,35,37,39,41,43,-1,45,47,-1,49,51,-1,-1,-1,-1,53,-1,-1,-1,55,57,59,-1,-1,61,63,65,67,-1,69,-1,-1,-1,-1,-1,-1,-1,-1,-1,-1,-1,-1,-1,-1,-1,-1,-1,-1,-1,-1,-1,-1],"loss_changes":[2.2140424E0,3.031042E0,1.8330195E0,1.3515353E0,2.425008E0,2.8719263E0,5.306434E0,4.408436E0,2.367319E0,0E0,2.0391226E0,1.7808537E0,2.6615925E0,2.1798077E0,1.0489678E0,8.322296E-1,6.445191E-1,0E0,3.9439983E0,7.913276E-1,7.4899065E-1,1.1687999E0,1.121798E0,2.15301E0,0E0,3.6631055E0,1.06624365E-1,0E0,4.926963E-1,8.89269E-1,0E0,0E0,0E0,0E0,1.2875404E0,0E0,0E0,0E0,1.4203467E0,2.7080715E0,1.3511262E0,0E0,0E0,2.2675185E0,1.5572336E0,8.9843965E-1,1.7615037E0,0E0,1.5238437E-1,0E0,0E0,0E0,0E0,0E0,0E0,0E0,0E0,0E0,0E0,0E0,0E0,0E0,0E0,0E0,0E0,0E0,0E0,0E0,0E0,0E0,0E0],"parents":[2147483647,0,0,1,1,2,2,3,3,4,4,5,5,6,6,7,7,8,8,10,10,11,11,12,12,13,13,14,14,15,15,16,16,18,18,19,19,20,20,21,21,22,22,23,23,25,25,26,26,28,28,29,29,34,34,38,38,39,39,40,40,43,43,44,44,45,45,46,46,48,48],"right_children":[2,4,6,8,10,12,14,16,18,-1,20,22,24,26,28,30,32,-1,34,36,38,40,42,44,-1,46,48,-1,50,52,-1,-1,-1,-1,54,-1,-1,-1,56,58,60,-1,-1,62,64,66,68,-1,70,-1,-1,-1,-1,-1,-1,-1,-1,-1,-1,-1,-1,-1,-1,-1,-1,-1,-1,-1,-1,-1,-1],"split_conditions":[1.7487395E9,3.8E1,1.7493188E9,4.1E1,4.263E1,2.8E1,1.5872E2,1.9E1,6.4E1,-6.919931E-2,1.7485614E9,1.7491949E9,1.7492452E9,7E1,1.5E1,7E0,1.748714E9,7.387077E-2,7.5E1,1.313E2,1.7485889E9,1.9E1,1.5073E2,1.748789E9,-6.3687555E-2,3E0,3.3E1,-7.889102E-3,1.8524E2,9.676E1,6.606772E-2,-6.640581E-2,7.5873877E-3,-6.288695E-2,1.748651E9,7.2370516E-3,-6.265654E-2,6.16283E-2,1.7486339E9,1.7489659E9,2.2E1,5.5564046E-2,-3.943449E-2,6.8E1,4.8E1,3.9E1,1.7504786E9,-7.2812594E-2,1.281E2,7.331159E-2,2.7821257E-3,-4.5139205E-2,4.3916937E-2,6.692329E-3,6.98061E-2,-3.2161877E-2,5.4894477E-2,3.942481E-3,-5.6162514E-2,-1.2313717E-2,-7.6115005E-2,-6.6994004E-2,4.9844217E-2,3.2096084E-2,-4.795378E-2,-6.636995E-2,-5.047654E-3,5.6585636E-2,-4.707752E-2,2.5047616E-3,-4.1575395E-2],"split_indices":[5,3,5,4,0,3,0,4,4,0,5,5,5,4,4,4,5,0,4,0,5,3,0,5,0,6,3,0,0,0,0,0,0,0,5,0,0,0,5,5,4,0,0,4,3,4,5,0,0,0,0,0,0,0,0,0,0,0,0,0,0,0,0,0,0,0,0,0,0,0,0],"split_type":[0,0,0,0,0,0,0,0,0,0,0,0,0,0,0,0,0,0,0,0,0,0,0,0,0,0,0,0,0,0,0,0,0,0,0,0,0,0,0,0,0,0,0,0,0,0,0,0,0,0,0,0,0,0,0,0,0,0,0,0,0,0,0,0,0,0,0,0,0,0,0],"sum_hessian":[1.9071857E2,6.3630577E1,1.27088E2,4.3109478E1,2.05211E1,8.747143E1,3.961657E1,1.513452E1,2.7974957E1,5.424583E0,1.5096516E1,4.9639343E1,3.783209E1,2.5927929E1,1.368864E1,8.568937E0,6.5655823E0,1.1478453E1,1.6496504E1,5.797161E0,9.299355E0,4.584248E1,3.796862E0,3.366538E1,4.166708E0,1.917362E1,6.7543087E0,1.959054E0,1.1729586E1,2.4853196E0,6.0836177E0,5.3550496E0,1.2105329E0,3.9089868E0,1.2587517E1,2.2130387E0,3.5841224E0,3.640036E0,5.659319E0,2.8800386E1,1.7042095E1,2.7905138E0,1.0063483E0,6.255268E0,2.7410112E1,9.413627E0,9.759993E0,4.637741E0,2.1165676E0,1.055798E1,1.1716065E0,1.2451725E0,1.2401472E0,6.0981846E0,6.4893317E0,3.3573313E0,2.3019876E0,1.5508168E1,1.3292217E1,5.0500073E0,1.1992088E1,4.752228E0,1.5030404E0,2.5617939E1,1.7921734E0,5.2659683E0,4.1476583E0,8.572295E0,1.1876978E0,1.1127301E0,1.0038376E0],"tree_param":{"num_deleted":"0","num_feature":"7","num_nodes":"71","size_leaf_vector":"1"}},{"base_weights":[4.3147453E-3,-1.5458061E-1,7.709352E-2,4.9924813E-2,-2.8970402E-1,1.9640131E-1,-1.0606067E-1,-3.8168377E-1,4.046199E-1,-4.5927668E-1,3.1471442E-2,2.716119E-2,4.682601E-1,1.04465544E-1,-4.558491E-1,-4.4082417E-3,-6.511014E-2,-4.0319797E-2,6.2706554E-1,-6.713627E-2,-3.1137425E-1,5.373783E-1,-2.7707842E-1,2.8556722E-1,-2.7293554E-1,-9.269153E-2,5.8284134E-1,-3.9222026E-1,3.995265E-1,5.2741665E-2,-6.458894E-1,-5.379927E-2,5.509227E-2,-5.240195E-2,5.0760396E-2,7.524562E-2,9.595463E-3,-6.556417E-2,-5.799378E-2,6.4272694E-2,1.0441599E-2,-6.6142604E-2,5.2043457E-2,3.7339854E-1,-5.099945E-2,5.3060096E-2,-3.858522E-1,5.314784E-2,-6.253179E-2,7.238837E-2,2.4597767E-1,2.0729747E-2,-5.2633154E-1,5.2626766E-2,6.2501776E-1,-7.7093214E-2,2.367307E-2,3.3613168E-2,-2.6842756E-2,4.2575505E-2,-4.3854844E-2,-6.43747E-2,9.209699E-3,-2.256029E-2,6.18864E-2,-5.9682358E-2,1.2875173E-3,3.524831E-2,-5.9319217E-2,6.935436E-2,1.3634889E-2,4.951069E-2,-4.5578923E-2],"categories":[],"categories_nodes":[],"categories_segments":[],"categories_sizes":[],"default_left":[0,0,0,0,0,0,0,0,0,0,0,0,0,0,0,0,0,0,0,0,0,0,0,0,0,0,0,0,0,0,0,0,0,0,0,0,0,0,0,0,0,0,0,0,0,0,0,0,0,0,0,0,0,0,0,0,0,0,0,0,0,0,0,0,0,0,0,0,0,0,0,0,0],"id":13,"left_children":[1,3,5,7,9,11,13,15,17,19,21,23,25,27,29,31,-1,33,35,-1,37,39,41,43,45,47,49,51,53,-1,55,-1,-1,-1,-1,-1,-1,-1,57,-1,-1,-1,-1,59,-1,-1,61,-1,-1,-1,63,-1,65,67,69,-1,71,-1,-1,-1,-1,-1,-1,-1,-1,-1,-1,-1,-1,-1,-1,-1,-1],"loss_changes":[2.1760416E0,1.6481932E0,2.8401053E0,3.8859642E0,1.9613056E0,3.5979657E0,3.8431087E0,1.1670463E0,1.3975658E0,5.2681446E-1,2.2230752E0,3.9109786E0,1.9853687E0,4.9913797E0,3.994142E0,2.0155938E0,0E0,1.7398031E0,5.474143E-1,0E0,1.3302487E0,1.7801392E-1,3.0764394E0,2.0804095E0,2.3261352E0,2.3135672E0,1.0139675E0,1.1381565E0,1.6246943E0,0E0,1.4277153E0,0E0,0E0,0E0,0E0,0E0,0E0,0E0,9.305953E-1,0E0,0E0,0E0,0E0,1.2467587E0,0E0,0E0,2.6574974E0,0E0,0E0,0E0,1.7080014E0,0E0,4.1597247E-1,2.0371518E0,3.324113E-1,0E0,1.0437726E0,0E0,0E0,0E0,0E0,0E0,0E0,0E0,0E0,0E0,0E0,0E0,0E0,0E0,0E0,0E0,0E0],"parents":[2147483647,0,0,1,1,2,2,3,3,4,4,5,5,6,6,7,7,8,8,9,9,10,10,11,11,12,12,13,13,14,14,15,15,17,17,18,18,20,20,21,21,22,22,23,23,24,24,25,25,26,26,27,27,28,28,30,30,38,38,43,43,46,46,50,50,52,52,53,53,54,54,56,56],"right_children":[2,4,6,8,10,12,14,16,18,20,22,24,26,28,30,32,-1,34,36,-1,38,40,42,44,46,48,50,52,54,-1,56,-1,-1,-1,-1,-1,-1,-1,58,-1,-1,-1,-1,60,-1,-1,62,-1,-1,-1,64,-1,66,68,70,-1,72,-1,-1,-1,-1,-1,-1,-1,-1,-1,-1,-1,-1,-1,-1,-1,-1],"split_conditions":[3E0,2.9E1,6.3E1,1.6E1,7.7E1,4.4E1,3.7E1,1.1E1,8E0,2.1E1,2.4E1,2E1,1.7485614E9,1.7486534E9,1.1E1,8E0,-6.511014E-2,3.5E1,4.7E1,-6.713627E-2,4.6E1,2.9E1,4.2E1,5.4E1,5E0,3.3E1,5E0,1.7485015E9,2E1,5.2741665E-2,8.9E1,-5.379927E-2,5.509227E-2,-5.240195E-2,5.0760396E-2,7.524562E-2,9.595463E-3,-6.556417E-2,2.6E1,6.4272694E-2,1.0441599E-2,-6.6142604E-2,5.2043457E-2,1.749415E9,-5.099945E-2,5.3060096E-2,4E1,5.314784E-2,-6.253179E-2,7.238837E-2,2.6E1,2.0729747E-2,2.5E1,8E1,1.7493716E9,-7.7093214E-2,4.3E1,3.3613168E-2,-2.6842756E-2,4.2575505E-2,-4.3854844E-2,-6.43747E-2,9.209699E-3,-2.256029E-2,6.18864E-2,-5.9682358E-2,1.2875173E-3,3.524831E-2,-5.9319217E-2,6.935436E-2,1.3634889E-2,4.951069E-2,-4.5578923E-2],"split_indices":[6,4,4,4,4,4,2,4,3,2,2,4,5,5,3,4,0,2,2,0,4,3,2,2,2,2,6,5,2,0,4,0,0,0,0,0,0,0,2,0,0,0,0,5,0,0,2,0,0,0,2,0,2,4,5,0,2,0,0,0,0,0,0,0,0,0,0,0,0,0,0,0,0],"split_type":[0,0,0,0,0,0,0,0,0,0,0,0,0,0,0,0,0,0,0,0,0,0,0,0,0,0,0,0,0,0,0,0,0,0,0,0,0,0,0,0,0,0,0,0,0,0,0,0,0,0,0,0,0,0,0,0,0,0,0,0,0,0,0,0,0,0,0,0,0,0,0,0,0],"sum_hessian":[1.8613985E2,5.8121418E1,1.2801843E2,2.3374819E1,3.4746597E1,7.7477066E1,5.0541374E1,1.0509864E1,1.2864955E1,2.2458881E1,1.2287717E1,4.8428688E1,2.9048376E1,3.1989367E1,1.8552006E1,4.8019195E0,5.7079444E0,4.560902E0,8.304052E0,7.7732005E0,1.468568E1,4.3741364E0,7.913581E0,2.6047894E1,2.2380795E1,4.9594755E0,2.4088902E1,1.179879E1,2.0190577E1,2.7173235E0,1.5834682E1,2.4648314E0,2.337088E0,2.4455929E0,2.1153092E0,6.3808346E0,1.923218E0,5.553108E0,9.132572E0,3.128437E0,1.2456995E0,5.455187E0,2.4583936E0,2.393597E1,2.1119227E0,2.3017874E0,2.0079006E1,2.2844949E0,2.6749804E0,1.616982E1,7.9190793E0,2.0571222E0,9.741668E0,8.439888E0,1.1750688E1,1.3215292E1,2.619391E0,2.9709313E0,6.161641E0,2.2932838E1,1.0031323E0,1.28165045E1,7.2625027E0,3.671192E0,4.2478876E0,8.520857E0,1.2208116E0,6.0739403E0,2.3659475E0,9.937856E0,1.8128326E0,1.3043008E0,1.3150902E0],"tree_param":{"num_deleted":"0","num_feature":"7","num_nodes":"73","size_leaf_vector":"1"}},{"base_weights":[-4.2459562E-2,-3.1064937E-1,-7.90054E-3,-1.3217087E-1,-5.251778E-1,2.1826267E-2,-3.4458813E-1,-3.917786E-1,2.51699E-1,-7.6517756E-3,-6.42587E-2,-1.806587E-2,2.293072E-1,-1.0789722E-1,-5.031077E-1,-5.6480903E-2,-8.014396E-2,5.778676E-2,-4.118016E-2,2.1964217E-2,-5.7374436E-1,3.9986423E-1,-2.3392801E-1,-4.8284948E-2,1.5293871E-1,-6.0498774E-2,-3.932444E-3,-1.7102093E-3,-1.0621793E-2,-1.7011581E-2,5.3489983E-1,9.726976E-4,-6.749191E-2,1.5232311E-1,6.637947E-2,4.1588377E-2,-4.8860016E-1,3.90665E-2,-5.7744044E-3,-5.174231E-2,2.8560613E-3,-5.1797915E-4,6.1283167E-2,5.7543546E-2,-1.3018218E-2,-6.1621754E-3,-6.333088E-2],"categories":[],"categories_nodes":[],"categories_segments":[],"categories_sizes":[],"default_left":[0,0,0,0,0,0,0,0,0,0,0,0,0,0,0,0,0,0,0,0,0,0,0,0,0,0,0,0,0,0,0,0,0,0,0,0,0,0,0,0,0,0,0,0,0,0,0],"id":14,"left_children":[1,3,5,7,9,11,13,15,17,-1,-1,19,21,23,25,-1,27,-1,-1,29,31,33,35,-1,37,-1,-1,-1,-1,39,41,-1,-1,43,-1,-1,45,-1,-1,-1,-1,-1,-1,-1,-1,-1,-1],"loss_changes":[1.5932555E0,6.82076E-1,1.544251E0,1.2994541E0,4.026389E-1,1.1796557E0,4.1532266E-1,3.6344373E-1,1.4218179E0,0E0,0E0,2.6829283E0,1.9088486E0,6.893325E-1,3.1749177E-1,0E0,4.546998E-3,0E0,0E0,2.267085E0,4.8495126E-1,1.0201659E0,1.3308344E0,0E0,2.4648061E-1,0E0,0E0,0E0,0E0,2.4306586E0,3.4017944E-1,0E0,0E0,1.2886276E0,0E0,0E0,2.9185677E-1,0E0,0E0,0E0,0E0,0E0,0E0,0E0,0E0,0E0,0E0],"parents":[2147483647,0,0,1,1,2,2,3,3,4,4,5,5,6,6,7,7,8,8,11,11,12,12,13,13,14,14,16,16,19,19,20,20,21,21,22,22,24,24,29,29,30,30,33,33,36,36],"right_children":[2,4,6,8,10,12,14,16,18,-1,-1,20,22,24,26,-1,28,-1,-1,30,32,34,36,-1,38,-1,-1,-1,-1,40,42,-1,-1,44,-1,-1,46,-1,-1,-1,-1,-1,-1,-1,-1,-1,-1],"split_conditions":[3.508E1,3.4E1,1.8451E2,2.8E1,2.3E1,1.7098E2,3E0,5E0,2.444E1,-7.6517756E-3,-6.42587E-2,1.6436E2,4.3E1,1.9E1,4E0,-5.6480903E-2,1.012E1,5.778676E-2,-4.118016E-2,1.6097E2,9E0,5E0,8E0,-4.8284948E-2,3.4E1,-6.0498774E-2,-3.932444E-3,-1.7102093E-3,-1.0621793E-2,1E0,1.5E1,9.726976E-4,-6.749191E-2,2E0,6.637947E-2,4.1588377E-2,3E0,3.90665E-2,-5.7744044E-3,-5.174231E-2,2.8560613E-3,-5.1797915E-4,6.1283167E-2,5.7543546E-2,-1.3018218E-2,-6.1621754E-3,-6.333088E-2],"split_indices":[0,2,0,2,3,0,1,6,0,0,0,0,2,3,6,0,0,0,0,0,2,6,3,0,3,0,0,0,0,6,3,0,0,6,0,0,6,0,0,0,0,0,0,0,0,0,0],"split_type":[0,0,0,0,0,0,0,0,0,0,0,0,0,0,0,0,0,0,0,0,0,0,0,0,0,0,0,0,0,0,0,0,0,0,0,0,0,0,0,0,0,0,0,0,0,0,0],"sum_hessian":[1.7116711E2,1.862692E1,1.5254019E2,1.1049941E1,7.576979E0,1.4102408E2,1.1516119E1,6.579609E0,4.470332E0,1.9141371E0,5.6628423E0,1.1904781E2,2.1976269E1,5.2932487E0,6.222871E0,3.708251E0,2.8713582E0,3.0835571E0,1.3867754E0,1.1194404E2,7.1037755E0,1.616232E1,5.8139496E0,1.822393E0,3.4708557E0,4.8524604E0,1.3704101E0,1.3246104E0,1.5467479E0,1.0493714E2,7.006893E0,1.183342E0,5.9204335E0,9.153944E0,7.008375E0,1.458776E0,4.355173E0,1.2293847E0,2.241471E0,7.894677E0,9.7042465E1,1.0012951E0,6.005598E0,3.2497876E0,5.9041567E0,1.4633207E0,2.8918526E0],"tree_param":{"num_deleted":"0","num_feature":"7","num_nodes":"47","size_leaf_vector":"1"}},{"base_weights":[4.879708E-2,-8.304248E-2,1.5526548E-1,5.3175766E-2,-3.6832395E-1,4.0764704E-1,-9.458394E-3,-1.1777391E-1,2.5981313E-1,4.460601E-2,-4.4183365E-1,-1.4072075E-1,4.9542296E-1,-3.2871982E-1,1.2474821E-1,1.7330527E-1,-3.1590363E-1,3.3324286E-1,-4.4694524E-2,3.050226E-2,-5.0340295E-1,-5.643323E-2,4.7914743E-2,6.3018316E-1,2.2876893E-1,2.7239714E-2,-4.1776377E-1,-5.4026026E-2,1.8620098E-1,-4.1059014E-1,5.036509E-1,-6.098708E-1,1.15063235E-1,-8.161274E-2,4.9922103E-1,-3.94977E-2,4.304719E-2,-6.2338966E-1,-1.3522483E-1,6.675053E-3,6.6545933E-1,-5.276235E-2,4.5532537E-1,-5.836499E-1,-6.622634E-2,2.8557533E-1,-1.8780759E-1,6.8368106E-3,-5.5656966E-2,1.2210938E-2,6.331295E-2,-6.768202E-2,-2.7218437E-2,-4.1712474E-2,5.966137E-2,3.7829306E-2,-3.8428273E-2,6.976847E-2,2.1167926E-2,-6.6909365E-2,-2.6558539E-2,1.6492272E-2,-5.1238384E-2,8.461295E-3,7.029403E-2,5.504333E-2,-2.2224863E-3,-6.621047E-2,-2.3492426E-2,-4.857476E-2,2.0302838E-2,4.7574114E-2,-1.7473178E-3,-5.4793872E-2,7.192388E-3],"categories":[],"categories_nodes":[],"categories_segments":[],"categories_sizes":[],"default_left":[0,0,0,0,0,0,0,0,0,0,0,0,0,0,0,0,0,0,0,0,0,0,0,0,0,0,0,0,0,0,0,0,0,0,0,0,0,0,0,0,0,0,0,0,0,0,0,0,0,0,0,0,0,0,0,0,0,0,0,0,0,0,0,0,0,0,0,0,0,0,0,0,0,0,0],"id":15,"left_children":[1,3,5,7,9,11,13,15,17,-1,19,21,23,25,27,29,31,33,-1,35,37,-1,-1,39,41,-1,43,-1,45,47,49,51,53,55,57,-1,-1,59,61,-1,63,-1,65,67,69,71,73,-1,-1,-1,-1,-1,-1,-1,-1,-1,-1,-1,-1,-1,-1,-1,-1,-1,-1,-1,-1,-1,-1,-1,-1,-1,-1,-1,-1],"loss_changes":[2.414541E0,3.0154343E0,3.9535189E0,1.9046332E0,1.696135E0,1.87675E0,2.5459595E0,1.7688065E0,1.4116341E0,0E0,6.978879E-1,1.8351067E0,1.026691E0,1.0546474E0,1.8123047E0,2.653144E0,2.355448E0,1.5978496E0,0E0,7.91072E-1,8.354721E-1,0E0,0E0,3.7445545E-1,2.383773E0,0E0,8.771491E-1,0E0,1.5063282E0,3.9698392E-1,3.4503126E-1,6.180668E-2,2.3390357E0,1.1645257E0,7.820492E-1,0E0,0E0,7.4558735E-2,8.0837905E-1,0E0,3.698721E-1,0E0,4.7379136E-1,1.3286328E-1,7.9475975E-1,1.8108163E0,8.6331505E-1,0E0,0E0,0E0,0E0,0E0,0E0,0E0,0E0,0E0,0E0,0E0,0E0,0E0,0E0,0E0,0E0,0E0,0E0,0E0,0E0,0E0,0E0,0E0,0E0,0E0,0E0,0E0,0E0],"parents":[2147483647,0,0,1,1,2,2,3,3,4,4,5,5,6,6,7,7,8,8,10,10,11,11,12,12,13,13,14,14,15,15,16,16,17,17,19,19,20,20,23,23,24,24,26,26,28,28,29,29,30,30,31,31,32,32,33,33,34,34,37,37,38,38,40,40,42,42,43,43,44,44,45,45,46,46],"right_children":[2,4,6,8,10,12,14,16,18,-1,20,22,24,26,28,30,32,34,-1,36,38,-1,-1,40,42,-1,44,-1,46,48,50,52,54,56,58,-1,-1,60,62,-1,64,-1,66,68,70,72,74,-1,-1,-1,-1,-1,-1,-1,-1,-1,-1,-1,-1,-1,-1,-1,-1,-1,-1,-1,-1,-1,-1,-1,-1,-1,-1,-1,-1],"split_conditions":[4.4E1,2.8E1,6.4E1,1.7E1,5E0,2E0,7.5E1,6.669E1,1.904E2,4.460601E-2,4.133E1,3E1,1.313E2,1.563E1,1.689E1,4.064E1,4E0,1.3354E2,-4.4694524E-2,3.761E1,5.2E1,-5.643323E-2,4.7914743E-2,4.6E1,1.4719E2,2.7239714E-2,5E0,-5.4026026E-2,5E0,1.5E1,9E0,1.7435E2,3.3E1,1.689E1,1.615E2,-3.94977E-2,4.304719E-2,1.8727E2,3.7E1,6.675053E-3,2.613E1,-5.276235E-2,5E0,4E0,4.376E1,1.3095E2,9.314E1,6.8368106E-3,-5.5656966E-2,1.2210938E-2,6.331295E-2,-6.768202E-2,-2.7218437E-2,-4.1712474E-2,5.966137E-2,3.7829306E-2,-3.8428273E-2,6.976847E-2,2.1167926E-2,-6.6909365E-2,-2.6558539E-2,1.6492272E-2,-5.1238384E-2,8.461295E-3,7.029403E-2,5.504333E-2,-2.2224863E-3,-6.621047E-2,-2.3492426E-2,-4.857476E-2,2.0302838E-2,4.7574114E-2,-1.7473178E-3,-5.4793872E-2,7.192388E-3],"split_indices":[4,4,4,4,2,1,4,0,0,0,0,2,0,0,0,0,6,0,0,0,2,0,0,4,0,0,6,0,1,2,4,0,2,0,0,0,0,0,4,0,0,0,1,1,0,0,0,0,0,0,0,0,0,0,0,0,0,0,0,0,0,0,0,0,0,0,0,0,0,0,0,0,0,0,0],"split_type":[0,0,0,0,0,0,0,0,0,0,0,0,0,0,0,0,0,0,0,0,0,0,0,0,0,0,0,0,0,0,0,0,0,0,0,0,0,0,0,0,0,0,0,0,0,0,0,0,0,0,0,0,0,0,0,0,0,0,0,0,0,0,0,0,0,0,0,0,0,0,0,0,0,0,0],"sum_hessian":[1.7009715E2,7.609229E1,9.400487E1,5.205182E1,2.4040472E1,3.6542133E1,5.746273E1,2.8721098E1,2.333072E1,1.5707476E0,2.2469725E1,4.9589024E0,3.1583231E1,1.6577496E1,4.0885235E1,1.1682796E1,1.7038301E1,2.1613632E1,1.7170894E0,2.649371E0,1.9820354E1,2.9990058E0,1.9598966E0,2.0074694E1,1.1508538E1,1.8731467E0,1.47043495E1,2.799466E0,3.808577E1,4.13361E0,7.5491853E0,9.882333E0,7.1559687E0,6.321527E0,1.5292105E1,1.2897959E0,1.359575E0,1.4425884E1,5.39447E0,1.3532207E0,1.8721472E1,2.346273E0,9.162266E0,9.541539E0,5.1628103E0,3.0277472E1,7.8082986E0,1.0897626E0,3.043847E0,2.4050832E0,5.144102E0,7.409123E0,2.47321E0,3.4628122E0,3.6931565E0,2.4098766E0,3.9116504E0,8.203562E0,7.0885434E0,1.2020458E1,2.4054265E0,3.3172705E0,2.0771995E0,1.3322928E0,1.738918E1,7.5133114E0,1.648954E0,7.0555673E0,2.485972E0,1.7039185E0,3.4588919E0,1.8253424E1,1.2024048E1,2.8068378E0,5.001461E0],"tree_param":{"num_deleted":"0","num_feature":"7","num_nodes":"75","size_leaf_vector":"1"}},{"base_weights":[2.4618188E-2,-1.6193917E-2,4.558913E-1,1.7159036E-1,-1.0968966E-1,5.7038397E-1,1.7000657E-1,-3.395114E-1,2.5240308E-1,-5.163488E-1,3.240445E-2,1.7959502E-2,6.322425E-2,-1.3634235E-2,4.962654E-2,-5.5366892E-2,-1.6724555E-2,-3.473627E-1,3.1426924E-1,1.1662611E-1,-6.005645E-1,-9.78307E-2,2.2384137E-1,4.151497E-2,-4.2986263E-2,1.875956E-3,-4.9343374E-2,-2.912306E-1,3.811454E-1,-3.8174637E-2,4.6259638E-2,-1.2909177E-1,-7.1232356E-2,6.801925E-2,-3.2451504E-1,-1.90193E-2,4.2090172E-1,-5.0851863E-2,5.8698724E-3,6.2098574E-2,3.0778835E-2,-4.3126117E-2,4.332737E-2,1.6539985E-2,-3.9347455E-2,-3.847425E-2,3.6111936E-2,4.790936E-2,-4.1103054E-2,5.2758463E-2,-4.9996544E-3],"categories":[],"categories_nodes":[],"categories_segments":[],"categories_sizes":[],"default_left":[0,0,0,0,0,0,0,0,0,0,0,0,0,0,0,0,0,0,0,0,0,0,0,0,0,0,0,0,0,0,0,0,0,0,0,0,0,0,0,0,0,0,0,0,0,0,0,0,0,0,0],"id":16,"left_children":[1,3,5,7,9,11,13,15,17,19,21,-1,-1,-1,-1,-1,23,25,27,29,31,33,35,-1,-1,-1,-1,37,39,-1,-1,41,-1,43,45,47,49,-1,-1,-1,-1,-1,-1,-1,-1,-1,-1,-1,-1,-1,-1],"loss_changes":[2.7681882E0,2.551584E0,3.4799886E-1,2.08234E0,5.6170483E0,1.1083913E-1,5.9860104E-1,4.7644734E-1,1.679255E0,1.4109693E0,1.8360189E0,0E0,0E0,0E0,0E0,0E0,8.624523E-1,2.4625951E-1,1.6855061E0,8.302819E-1,1.0864267E0,1.6762608E0,1.4324445E0,0E0,0E0,0E0,0E0,3.6700973E-1,4.3255043E-1,0E0,0E0,1.1226075E0,0E0,1.2441393E0,9.1376054E-1,2.9871306E0,8.540015E-1,0E0,0E0,0E0,0E0,0E0,0E0,0E0,0E0,0E0,0E0,0E0,0E0,0E0,0E0],"parents":[2147483647,0,0,1,1,2,2,3,3,4,4,5,5,6,6,7,7,8,8,9,9,10,10,16,16,17,17,18,18,19,19,20,20,21,21,22,22,27,27,28,28,31,31,33,33,34,34,35,35,36,36],"right_children":[2,4,6,8,10,12,14,16,18,20,22,-1,-1,-1,-1,-1,24,26,28,30,32,34,36,-1,-1,-1,-1,38,40,-1,-1,42,-1,44,46,48,50,-1,-1,-1,-1,-1,-1,-1,-1,-1,-1,-1,-1,-1,-1],"split_conditions":[8.7E1,1.7487164E9,1.6429E2,2E0,1.7488586E9,1.879E1,5E0,5.895E1,3.442E1,2.444E1,3E0,1.7959502E-2,6.322425E-2,-1.3634235E-2,4.962654E-2,-5.5366892E-2,5E1,1.7485873E9,1.748489E9,1.222E1,1.7487395E9,1.7490342E9,1.7493152E9,4.151497E-2,-4.2986263E-2,1.875956E-3,-4.9343374E-2,8.866E1,1.9E1,-3.8174637E-2,4.6259638E-2,4E0,-7.1232356E-2,1.8159E2,1.7502413E9,4E0,7E1,-5.0851863E-2,5.8698724E-3,6.2098574E-2,3.0778835E-2,-4.3126117E-2,4.332737E-2,1.6539985E-2,-3.9347455E-2,-3.847425E-2,3.6111936E-2,4.790936E-2,-4.1103054E-2,5.2758463E-2,-4.9996544E-3],"split_indices":[4,5,0,1,5,0,6,0,0,0,6,0,0,0,0,0,4,5,5,0,5,5,5,0,0,0,0,0,4,0,0,1,0,0,5,1,4,0,0,0,0,0,0,0,0,0,0,0,0,0,0],"split_type":[0,0,0,0,0,0,0,0,0,0,0,0,0,0,0,0,0,0,0,0,0,0,0,0,0,0,0,0,0,0,0,0,0,0,0,0,0,0,0,0,0,0,0,0,0,0,0,0,0,0,0],"sum_hessian":[1.5585356E2,1.4325916E2,1.2594405E1,4.734082E1,9.591834E1,8.282309E0,4.312097E0,6.0262794E0,4.131454E1,2.4155077E1,7.176326E1,1.6652788E0,6.6170297E0,2.5241175E0,1.7879796E0,3.1927361E0,2.8335433E0,3.4316282E0,3.788291E1,2.7912054E0,2.136387E1,4.299952E1,2.8763744E1,1.3829775E0,1.4505658E0,1.2272183E0,2.2044098E0,3.434252E0,3.444866E1,1.1013277E0,1.6898777E0,4.5067105E0,1.685716E1,2.5235968E1,1.7763552E1,1.3289281E1,1.54744625E1,1.8390764E0,1.5951755E0,6.320049E0,2.812861E1,3.0831869E0,1.4235238E0,2.1368553E1,3.867416E0,1.673258E1,1.0309707E0,5.754776E0,7.534505E0,1.2518087E1,2.9563756E0],"tree_param":{"num_deleted":"0","num_feature":"7","num_nodes":"51","size_leaf_vector":"1"}},{"base_weights":[-3.1060632E-2,-1.8695888E-1,4.203493E-2,-5.2371335E-1,-1.09668314E-1,1.6798028E-1,-1.4295487E-1,7.933422E-3,-6.1453093E-2,3.3399323E-1,-2.6099727E-1,7.8208875E-3,4.7503084E-1,8.04976E-2,-5.4312295E-1,4.9540707E-1,-4.112447E-2,-5.3297322E-2,-1.8265033E-2,2.094321E-1,-1.7799982E-1,6.6527665E-2,-4.5074396E-2,-2.5287598E-1,3.1449363E-1,-6.417898E-1,3.6239374E-2,5.9605356E-2,5.2941157E-3,2.4454299E-1,-2.4653953E-1,2.9794043E-1,-4.5642816E-2,-3.708036E-1,3.03448E-1,-5.7256173E-2,5.2601017E-2,3.6555028E-1,-5.412339E-1,6.2348284E-2,5.4837085E-2,-6.940552E-2,-1.592991E-2,4.8488956E-2,-4.5166645E-2,-6.1152127E-2,3.5467517E-2,9.895467E-3,6.2368948E-2,3.7358884E-2,-4.470547E-2,9.93295E-4,5.1996477E-2,5.1442063E-3,5.145494E-2,-6.268561E-2,2.7037086E-3,3.9163332E-2,-2.111501E-2],"categories":[],"categories_nodes":[],"categories_segments":[],"categories_sizes":[],"default_left":[0,0,0,0,0,0,0,0,0,0,0,0,0,0,0,0,0,0,0,0,0,0,0,0,0,0,0,0,0,0,0,0,0,0,0,0,0,0,0,0,0,0,0,0,0,0,0,0,0,0,0,0,0,0,0,0,0,0,0],"id":17,"left_children":[1,3,5,7,9,11,13,-1,-1,15,17,19,21,23,25,27,-1,-1,29,31,33,-1,35,37,39,41,-1,-1,-1,43,45,47,-1,49,51,-1,-1,53,55,-1,57,-1,-1,-1,-1,-1,-1,-1,-1,-1,-1,-1,-1,-1,-1,-1,-1,-1,-1],"loss_changes":[1.7880862E0,1.2452701E0,2.5209749E0,5.459366E-1,2.9051328E0,3.1545043E0,3.9737256E0,0E0,0E0,1.5406301E0,2.0934687E0,1.6565689E0,2.2066765E0,2.3474898E0,1.6511259E0,3.954568E-1,0E0,0E0,1.1323351E0,1.3848133E0,2.2505503E0,0E0,2.3580785E0,2.434945E0,1.3721468E0,2.5958443E-1,0E0,0E0,0E0,1.6929605E0,2.424628E0,1.1898824E0,0E0,1.1260812E0,4.4835168E-1,0E0,0E0,1.8817014E-1,4.5284796E-1,0E0,1.0341657E0,0E0,0E0,0E0,0E0,0E0,0E0,0E0,0E0,0E0,0E0,0E0,0E0,0E0,0E0,0E0,0E0,0E0,0E0],"parents":[2147483647,0,0,1,1,2,2,3,3,4,4,5,5,6,6,9,9,10,10,11,11,12,12,13,13,14,14,15,15,18,18,19,19,20,20,22,22,23,23,24,24,25,25,29,29,30,30,31,31,33,33,34,34,37,37,38,38,40,40],"right_children":[2,4,6,8,10,12,14,-1,-1,16,18,20,22,24,26,28,-1,-1,30,32,34,-1,36,38,40,42,-1,-1,-1,44,46,48,-1,50,52,-1,-1,54,56,-1,58,-1,-1,-1,-1,-1,-1,-1,-1,-1,-1,-1,-1,-1,-1,-1,-1,-1,-1],"split_conditions":[3E0,1.6E1,6.4E1,6.607E1,2.9E1,4.7E1,3.7E1,7.933422E-3,-6.1453093E-2,1.904E2,7.2E1,2E1,1.313E2,1.7486534E9,1.749888E9,2E0,-4.112447E-2,-5.3297322E-2,6.405E1,5.4E1,1.7492388E9,6.6527665E-2,1.4551E2,1.7485015E9,1.7487649E9,8.9E1,3.6239374E-2,5.9605356E-2,5.2941157E-3,8.8E1,4.4E1,1.3619E2,-4.5642816E-2,4E0,1.2424E2,-5.7256173E-2,5.2601017E-2,1.7484974E9,2.5E1,6.2348284E-2,7.6E1,-6.940552E-2,-1.592991E-2,4.8488956E-2,-4.5166645E-2,-6.1152127E-2,3.5467517E-2,9.895467E-3,6.2368948E-2,3.7358884E-2,-4.470547E-2,9.93295E-4,5.1996477E-2,5.1442063E-3,5.145494E-2,-6.268561E-2,2.7037086E-3,3.9163332E-2,-2.111501E-2],"split_indices":[6,4,4,0,4,4,2,0,0,0,4,4,0,5,5,6,0,0,0,2,5,0,0,5,5,4,0,0,0,4,2,0,0,2,0,0,0,5,2,0,4,0,0,0,0,0,0,0,0,0,0,0,0,0,0,0,0,0,0],"split_type":[0,0,0,0,0,0,0,0,0,0,0,0,0,0,0,0,0,0,0,0,0,0,0,0,0,0,0,0,0,0,0,0,0,0,0,0,0,0,0,0,0,0,0,0,0,0,0,0,0,0,0,0,0,0,0,0,0,0,0],"sum_hessian":[1.5522237E2,4.9050247E1,1.0617212E2,8.078102E0,4.0972145E1,6.322144E1,4.295068E1,1.0738636E0,7.0042386E0,1.0113788E1,3.0858358E1,4.222309E1,2.0998348E1,2.8073418E1,1.4877261E1,8.588755E0,1.5250337E0,1.3988659E1,1.68697E1,2.0190163E1,2.203293E1,1.5170216E1,5.8281317E0,1.1544834E1,1.6528584E1,1.3678112E1,1.1991491E0,6.7143445E0,1.8744096E0,7.808573E0,9.061127E0,1.8309017E1,1.8811469E0,1.5896662E1,6.136267E0,3.028367E0,2.7997649E0,3.5861366E0,7.958698E0,6.907514E0,9.621069E0,1.1945628E1,1.7324834E0,6.0303087E0,1.7782638E0,5.6276093E0,3.433517E0,1.21753845E1,6.1336317E0,1.1147349E0,1.4781927E1,3.0489361E0,3.087331E0,1.5866132E0,1.9995234E0,6.826974E0,1.131724E0,4.036998E0,5.5840716E0],"tree_param":{"num_deleted":"0","num_feature":"7","num_nodes":"59","size_leaf_vector":"1"}},{"base_weights":[-1.16077345E-2,-1.4955793E-1,5.3310264E-2,-3.0667007E-1,4.6766256E-3,2.6501623E-1,1.3350358E-3,-6.0363706E-2,-1.557243E-1,3.142832E-1,-3.302236E-1,-7.986942E-2,5.7843095E-1,1.2059326E-1,-1.3384584E-1,1.164404E-2,-5.535475E-2,5.696956E-1,-2.3416471E-1,-4.8720235E-1,-8.697604E-3,5.4621756E-2,-4.3588206E-1,6.2326867E-2,9.380612E-3,-5.081911E-2,1.7152403E-1,-2.5159547E-1,1.20815545E-1,2.0946625E-1,-5.2935112E-2,1.6001811E-2,6.439112E-2,-4.5007076E-2,7.73613E-3,-1.2605406E-2,-5.792376E-2,3.9317276E-2,-2.0965007E-1,-5.2007735E-1,-1.4619491E-3,4.2097175E-1,7.574173E-2,-9.414427E-2,-5.4912007E-1,-2.5187394E-1,4.5846993E-1,-1.3690642E-2,5.6943446E-2,-4.5379933E-2,1.48264095E-2,-1.0019771E-2,-5.9501685E-2,5.379374E-2,-5.145853E-3,1.38444025E-2,-5.1940925E-2,2.0289596E-2,-4.501407E-2,-6.383211E-2,-1.8970169E-3,4.604962E-2,-6.0704555E-2,2.0742456E-3,5.743667E-2],"categories":[],"categories_nodes":[],"categories_segments":[],"categories_sizes":[],"default_left":[0,0,0,0,0,0,0,0,0,0,0,0,0,0,0,0,0,0,0,0,0,0,0,0,0,0,0,0,0,0,0,0,0,0,0,0,0,0,0,0,0,0,0,0,0,0,0,0,0,0,0,0,0,0,0,0,0,0,0,0,0,0,0,0,0],"id":18,"left_children":[1,3,5,7,9,11,13,-1,15,17,19,21,23,25,27,29,-1,31,33,35,37,-1,39,-1,-1,-1,41,43,45,47,-1,-1,-1,-1,-1,-1,-1,-1,49,51,-1,53,55,57,59,61,63,-1,-1,-1,-1,-1,-1,-1,-1,-1,-1,-1,-1,-1,-1,-1,-1,-1,-1],"loss_changes":[1.4136629E0,1.2249537E0,1.1822228E0,1.0278795E0,2.8477774E0,2.3355255E0,1.4234406E0,0E0,1.201008E0,2.1314707E0,6.620233E-1,2.6814842E0,1.8527865E-1,1.5892527E0,1.2715113E0,1.567173E0,0E0,2.017057E-1,3.8731247E-1,2.2120047E-1,5.1437414E-1,0E0,2.599876E-1,0E0,0E0,0E0,1.0226765E0,1.2893645E0,1.8473115E0,1.4096428E0,0E0,0E0,0E0,0E0,0E0,0E0,0E0,0E0,4.3586358E-1,1.3731956E-1,0E0,6.922326E-1,1.3075275E0,2.1985474E0,4.466014E-1,2.097982E0,3.723775E-1,0E0,0E0,0E0,0E0,0E0,0E0,0E0,0E0,0E0,0E0,0E0,0E0,0E0,0E0,0E0,0E0,0E0,0E0],"parents":[2147483647,0,0,1,1,2,2,3,3,4,4,5,5,6,6,8,8,9,9,10,10,11,11,12,12,13,13,14,14,15,15,17,17,18,18,19,19,20,20,22,22,26,26,27,27,28,28,29,29,38,38,39,39,41,41,42,42,43,43,44,44,45,45,46,46],"right_children":[2,4,6,8,10,12,14,-1,16,18,20,22,24,26,28,30,-1,32,34,36,38,-1,40,-1,-1,-1,42,44,46,48,-1,-1,-1,-1,-1,-1,-1,-1,50,52,-1,54,56,58,60,62,64,-1,-1,-1,-1,-1,-1,-1,-1,-1,-1,-1,-1,-1,-1,-1,-1,-1,-1],"split_conditions":[3E0,2.6E1,1.3E1,8.866E1,1.1372E2,2.1E1,5E0,-6.0363706E-2,1.8159E2,4E1,1.618E2,1.2688E2,5E0,2E0,1.5211E2,2E0,-5.535475E-2,3.508E1,1E0,3.1E1,2E0,5.4621756E-2,1E1,6.2326867E-2,9.380612E-3,-5.081911E-2,1.5E1,3.5E1,3.2E1,1.6531E2,-5.2935112E-2,1.6001811E-2,6.439112E-2,-4.5007076E-2,7.73613E-3,-1.2605406E-2,-5.792376E-2,3.9317276E-2,5E0,6E0,-1.4619491E-3,5E0,4.8E1,9.401E1,1.2033E2,2E0,2.7E1,-1.3690642E-2,5.6943446E-2,-4.5379933E-2,1.48264095E-2,-1.0019771E-2,-5.9501685E-2,5.379374E-2,-5.145853E-3,1.38444025E-2,-5.1940925E-2,2.0289596E-2,-4.501407E-2,-6.383211E-2,-1.8970169E-3,4.604962E-2,-6.0704555E-2,2.0742456E-3,5.743667E-2],"split_indices":[6,3,3,0,0,2,6,0,0,3,0,0,1,1,0,6,0,0,6,3,1,0,3,0,0,0,2,3,3,0,0,0,0,0,0,0,0,0,1,2,0,1,3,0,0,1,2,0,0,0,0,0,0,0,0,0,0,0,0,0,0,0,0,0,0],"split_type":[0,0,0,0,0,0,0,0,0,0,0,0,0,0,0,0,0,0,0,0,0,0,0,0,0,0,0,0,0,0,0,0,0,0,0,0,0,0,0,0,0,0,0,0,0,0,0,0,0,0,0,0,0,0,0,0,0,0,0,0,0,0,0,0,0],"sum_hessian":[1.5596474E2,4.9491634E1,1.064731E2,2.4027506E1,2.5464127E1,2.0179379E1,8.629372E1,7.086557E0,1.6940948E1,1.3263722E1,1.2200405E1,9.962109E0,1.021727E1,4.59043E1,4.038942E1,1.2607552E1,4.333397E0,9.022977E0,4.2407455E0,7.85169E0,4.3487153E0,3.4176083E0,6.5445004E0,9.09016E0,1.1271095E0,2.7668672E0,4.3137432E1,2.762725E1,1.2762171E1,9.680543E0,2.9270084E0,1.867932E0,7.1550446E0,2.2421045E0,1.998641E0,2.0758066E0,5.775883E0,1.130788E0,3.2179275E0,5.258872E0,1.2856284E0,1.102631E1,3.2111122E1,1.8927284E1,8.699966E0,6.187121E0,6.57505E0,5.249235E0,4.431308E0,1.7537298E0,1.4641976E0,1.1503882E0,4.108484E0,8.726995E0,2.2993147E0,2.9744738E1,2.366385E0,1.0552464E1,8.37482E0,7.272315E0,1.4276516E0,1.9597969E0,4.227324E0,1.6232421E0,4.951808E0],"tree_param":{"num_deleted":"0","num_feature":"7","num_nodes":"65","size_leaf_vector":"1"}},{"base_weights":[5.690144E-3,2.5554439E-2,-4.6618107E-1,-2.9349002E-1,5.281388E-2,-5.2797634E-2,-1.8915256E-2,-4.3781042E-1,2.3876362E-1,-3.0420896E-1,7.533019E-2,4.4482216E-2,-5.7655204E-2,3.7038177E-2,6.3856505E-4,-4.7101653E-1,3.8715616E-2,1.3994323E-1,-1.3551508E-1,3.7765536E-2,-3.230272E-2,6.8738195E-3,-5.7399876E-2,4.6434093E-1,8.737174E-2,-2.856716E-1,2.7701288E-1,5.133688E-2,4.671659E-3,5.7510085E-2,5.103032E-3,1.19116455E-2,-4.556925E-2,-4.1956518E-2,4.586555E-2],"categories":[],"categories_nodes":[],"categories_segments":[],"categories_sizes":[],"default_left":[0,0,0,0,0,0,0,0,0,0,0,0,0,0,0,0,0,0,0,0,0,0,0,0,0,0,0,0,0,0,0,0,0,0,0],"id":19,"left_children":[1,3,5,7,9,-1,-1,11,13,15,17,19,-1,-1,-1,21,-1,23,25,-1,-1,-1,-1,27,29,31,33,-1,-1,-1,-1,-1,-1,-1,-1],"loss_changes":[1.4592019E0,1.3123468E0,7.7991486E-3,1.0178741E0,1.1340812E0,0E0,0E0,6.751635E-1,9.499933E-2,1.1509373E0,1.8012514E0,5.0119054E-1,0E0,0E0,0E0,4.4063294E-1,0E0,1.6755911E0,2.011488E0,0E0,0E0,0E0,0E0,2.586162E-1,1.5273936E0,1.6621715E0,1.3099825E0,0E0,0E0,0E0,0E0,0E0,0E0,0E0,0E0],"parents":[2147483647,0,0,1,1,2,2,3,3,4,4,7,7,8,8,9,9,10,10,11,11,15,15,17,17,18,18,23,23,24,24,25,25,26,26],"right_children":[2,4,6,8,10,-1,-1,12,14,16,18,20,-1,-1,-1,22,-1,24,26,-1,-1,-1,-1,28,30,32,34,-1,-1,-1,-1,-1,-1,-1,-1],"split_conditions":[1.904E2,1E0,1.9774E2,1.618E2,1.506E1,-5.2797634E-2,-1.8915256E-2,1.74886E9,4E0,5E0,5E0,5.008E1,-5.7655204E-2,3.7038177E-2,6.3856505E-4,1.748689E9,3.8715616E-2,2E0,1.749344E9,3.7765536E-2,-3.230272E-2,6.8738195E-3,-5.7399876E-2,1.7495704E9,2.444E1,1.7487395E9,2E0,5.133688E-2,4.671659E-3,5.7510085E-2,5.103032E-3,1.19116455E-2,-4.556925E-2,-4.1956518E-2,4.586555E-2],"split_indices":[0,6,0,0,0,0,0,5,1,1,1,0,0,0,0,5,0,6,5,0,0,0,0,5,0,5,6,0,0,0,0,0,0,0,0],"split_type":[0,0,0,0,0,0,0,0,0,0,0,0,0,0,0,0,0,0,0,0,0,0,0,0,0,0,0,0,0,0,0,0,0,0,0],"sum_hessian":[1.5340402E2,1.481147E2,5.289319E0,1.0890126E1,1.3722458E2,3.5839996E0,1.7053192E0,8.706737E0,2.1833892E0,7.398707E0,1.2982587E2,2.0968993E0,6.6098375E0,1.0147572E0,1.168632E0,6.2173457E0,1.181361E0,9.9630585E1,3.0195284E1,1.0853478E0,1.0115514E0,1.0494499E0,5.167896E0,1.2801999E1,8.682858E1,2.2362898E1,7.832386E0,1.1251811E1,1.5501883E0,4.993058E0,8.1835526E1,6.7032084E0,1.5659689E1,1.3490603E0,6.483326E0],"tree_param":{"num_deleted":"0","num_feature":"7","num_nodes":"35","size_leaf_vector":"1"}},{"base_weights":[7.37272E-3,-1.3352484E-1,7.9196356E-2,-4.3612686E-1,-2.6417166E-2,1.02204196E-1,-5.2088786E-2,-4.9098876E-1,7.327036E-3,3.5134837E-1,-1.4826383E-1,1.7801419E-1,-1.9515302E-2,-1.2420318E-1,-5.934086E-2,1.6801326E-2,4.9107394E-1,-4.988296E-2,-8.926095E-2,6.696027E-2,3.898942E-1,-2.1828501E-1,2.138641E-1,1.3734127E-2,-3.5843145E-2,4.2886607E-2,-4.009148E-2,1.5333438E-2,5.664608E-2,-3.5716664E-2,-4.51363E-2,2.773376E-1,-1.3614798E-1,-1.3540871E-2,4.7128505E-1,-1.3863339E-2,-5.190301E-1,3.5173836E-1,-2.4234776E-1,-1.5164131E-2,5.4449525E-2,-1.3609937E-2,4.185542E-2,4.4922475E-2,-2.1846931E-2,5.4816205E-2,2.2997376E-2,-5.5137467E-2,2.271781E-2,-6.1525166E-2,6.594573E-3,5.6347318E-2,2.0164354E-2,-5.125597E-2,3.551876E-2],"categories":[],"categories_nodes":[],"categories_segments":[],"categories_sizes":[],"default_left":[0,0,0,0,0,0,0,0,0,0,0,0,0,0,0,0,0,0,0,0,0,0,0,0,0,0,0,0,0,0,0,0,0,0,0,0,0,0,0,0,0,0,0,0,0,0,0,0,0,0,0,0,0,0,0],"id":20,"left_children":[1,3,5,7,9,11,-1,13,-1,15,17,19,21,23,-1,25,27,-1,29,31,33,35,37,-1,-1,-1,-1,-1,-1,39,-1,41,43,-1,45,47,49,51,53,-1,-1,-1,-1,-1,-1,-1,-1,-1,-1,-1,-1,-1,-1,-1,-1],"loss_changes":[1.5134342E0,1.625707E0,1.4199928E0,4.0322614E-1,1.8183986E0,8.9091814E-1,0E0,3.7684107E-1,0E0,4.4308662E-1,5.7017314E-1,1.3706785E0,1.8007171E0,2.8708383E-1,0E0,8.3978647E-1,8.5650325E-2,0E0,5.006745E-1,1.7535608E0,9.277451E-1,1.2786222E0,1.2109499E0,0E0,0E0,0E0,0E0,0E0,0E0,1.7174759E0,0E0,1.2277923E0,1.1149826E0,0E0,2.026465E-1,1.8716111E0,5.1541185E-1,3.3611155E-1,9.482721E-1,0E0,0E0,0E0,0E0,0E0,0E0,0E0,0E0,0E0,0E0,0E0,0E0,0E0,0E0,0E0,0E0],"parents":[2147483647,0,0,1,1,2,2,3,3,4,4,5,5,7,7,9,9,10,10,11,11,12,12,13,13,15,15,16,16,18,18,19,19,20,20,21,21,22,22,29,29,31,31,32,32,34,34,35,35,36,36,37,37,38,38],"right_children":[2,4,6,8,10,12,-1,14,-1,16,18,20,22,24,-1,26,28,-1,30,32,34,36,38,-1,-1,-1,-1,-1,-1,40,-1,42,44,-1,46,48,50,52,54,-1,-1,-1,-1,-1,-1,-1,-1,-1,-1,-1,-1,-1,-1,-1,-1],"split_conditions":[3E0,2E1,5.9E1,8.4E1,2.6E1,6.4E1,-5.2088786E-2,6E0,7.327036E-3,2.1E1,3E1,4.6E1,7.9E1,6E0,-5.934086E-2,2.1E1,2.1E1,-4.988296E-2,4.3E1,2E1,2E0,3.7E1,5E0,1.3734127E-2,-3.5843145E-2,4.2886607E-2,-4.009148E-2,1.5333438E-2,5.664608E-2,3.3E1,-4.51363E-2,7E0,5E0,-1.3540871E-2,2.9E1,4E0,5.2E1,8.3E1,9.2E1,-1.5164131E-2,5.4449525E-2,-1.3609937E-2,4.185542E-2,4.4922475E-2,-2.1846931E-2,5.4816205E-2,2.2997376E-2,-5.5137467E-2,2.271781E-2,-6.1525166E-2,6.594573E-3,5.6347318E-2,2.0164354E-2,-5.125597E-2,3.551876E-2],"split_indices":[6,2,2,4,2,4,0,2,0,3,2,4,4,3,0,2,2,0,3,4,1,2,1,0,0,0,0,0,0,3,0,4,2,0,3,6,2,4,4,0,0,0,0,0,0,0,0,0,0,0,0,0,0,0,0],"split_type":[0,0,0,0,0,0,0,0,0,0,0,0,0,0,0,0,0,0,0,0,0,0,0,0,0,0,0,0,0,0,0,0,0,0,0,0,0,0,0,0,0,0,0,0,0,0,0,0,0,0,0,0,0,0,0],"sum_hessian":[1.4750722E2,4.9514595E1,9.799263E1,1.2141215E1,3.737338E1,9.517327E1,2.8193572E0,1.0993371E1,1.1478446E0,8.655353E0,2.8718025E1,5.8361652E1,3.6811615E1,2.8826656E0,8.110705E0,2.8799915E0,5.7753615E0,3.063271E0,2.5654755E1,3.915509E1,1.9206562E1,1.991481E1,1.6896807E1,1.5573442E0,1.3253214E0,1.436366E0,1.4436256E0,1.607516E0,4.1678452E0,2.3306974E1,2.3477814E0,1.905385E1,2.0101242E1,2.4876156E0,1.6718946E1,1.2478829E1,7.4359803E0,1.3151287E1,3.7455196E0,2.0041405E1,3.2655697E0,4.8603973E0,1.4193452E1,1.9288142E0,1.8172428E1,1.17151375E1,5.003809E0,3.4648666E0,9.013963E0,6.3411765E0,1.0948038E0,4.312974E0,8.838313E0,2.6771111E0,1.0684085E0],"tree_param":{"num_deleted":"0","num_feature":"7","num_nodes":"55","size_leaf_vector":"1"}},{"base_weights":[1.8993657E-2,-3.824705E-2,1.5527888E-1,3.613524E-1,-8.7471105E-2,-3.2786804E-1,2.1182157E-1,5.296596E-2,5.7677772E-2,-5.4523684E-2,-6.2091053E-2,5.7338667E-3,-4.961547E-2,6.470103E-2,4.2114162E-1,-2.514055E-1,4.4840876E-2,-1.5808262E-1,4.4669256E-2,1.3302751E-1,-4.8132222E-2,-3.5706352E-2,5.123874E-1,9.860921E-3,-4.553595E-2,-7.8222E-2,-5.0892925E-1,-3.431727E-1,1.20878935E-1,2.2503221E-3,4.0299842E-1,5.4936733E-2,1.1825275E-2,2.8332433E-2,-1.6987719E-2,-5.996698E-2,-1.343517E-2,-2.8538434E-3,-5.2107584E-2,3.7393373E-2,-1.1082125E-3,3.579811E-2,-3.2593083E-2,1.7334977E-2,4.9701013E-2],"categories":[],"categories_nodes":[],"categories_segments":[],"categories_sizes":[],"default_left":[0,0,0,0,0,0,0,0,0,0,0,0,0,0,0,0,0,0,0,0,0,0,0,0,0,0,0,0,0,0,0,0,0,0,0,0,0,0,0,0,0,0,0,0,0],"id":21,"left_children":[1,3,5,7,9,11,13,15,-1,-1,17,-1,-1,19,21,23,-1,25,27,29,-1,-1,31,-1,-1,33,35,37,39,41,43,-1,-1,-1,-1,-1,-1,-1,-1,-1,-1,-1,-1,-1,-1],"loss_changes":[1.1061488E0,2.0009813E0,1.2144246E0,7.118882E-1,1.0111445E0,3.385452E-1,1.1469326E0,7.9845804E-1,0E0,0E0,8.91976E-1,0E0,0E0,9.4347113E-1,1.2875566E0,3.2046115E-1,0E0,1.2403163E0,1.2728745E0,7.664471E-1,0E0,0E0,1.439569E-1,0E0,0E0,1.3205578E0,2.0119667E-1,3.8267994E-1,1.1915727E0,1.9434124E0,6.684959E-2,0E0,0E0,0E0,0E0,0E0,0E0,0E0,0E0,0E0,0E0,0E0,0E0,0E0,0E0],"parents":[2147483647,0,0,1,1,2,2,3,3,4,4,5,5,6,6,7,7,10,10,13,13,14,14,15,15,17,17,18,18,19,19,22,22,25,25,26,26,27,27,28,28,29,29,30,30],"right_children":[2,4,6,8,10,12,14,16,-1,-1,18,-1,-1,20,22,24,-1,26,28,30,-1,-1,32,-1,-1,34,36,38,40,42,44,-1,-1,-1,-1,-1,-1,-1,-1,-1,-1,-1,-1,-1,-1],"split_conditions":[1.5211E2,1.7485283E9,1.7485544E9,1.748489E9,8E0,1.7484959E9,3.3E1,8.866E1,5.7677772E-2,-5.4523684E-2,1.7489071E9,5.7338667E-3,-4.961547E-2,2.7E1,1E0,3.7E1,4.4840876E-2,1.2945E2,3.717E1,1.7492388E9,-4.8132222E-2,-3.5706352E-2,1.8767E2,9.860921E-3,-4.553595E-2,1.7486044E9,1.4551E2,7.3E1,1.749013E9,1.748778E9,3.2E1,5.4936733E-2,1.1825275E-2,2.8332433E-2,-1.6987719E-2,-5.996698E-2,-1.343517E-2,-2.8538434E-3,-5.2107584E-2,3.7393373E-2,-1.1082125E-3,3.579811E-2,-3.2593083E-2,1.7334977E-2,4.9701013E-2],"split_indices":[0,5,5,5,4,5,3,0,0,0,5,0,0,3,6,0,0,0,0,5,0,0,0,0,0,5,0,4,5,5,4,0,0,0,0,0,0,0,0,0,0,0,0,0,0],"split_type":[0,0,0,0,0,0,0,0,0,0,0,0,0,0,0,0,0,0,0,0,0,0,0,0,0,0,0,0,0,0,0,0,0,0,0,0,0,0,0,0,0,0,0,0,0],"sum_hessian":[1.4003334E2,9.912115E1,4.091219E1,1.0175529E1,8.894562E1,3.783582E0,3.7128605E1,4.6972175E0,5.478311E0,3.596404E0,8.534921E1,1.350828E0,2.432754E0,2.2572578E1,1.4556028E1,2.8600705E0,1.837147E0,4.468805E1,4.0661167E1,2.073436E1,1.8382185E0,1.2218732E0,1.3334155E1,1.2431526E0,1.6169178E0,3.7398304E1,7.2897468E0,6.102363E0,3.4558804E1,1.4647344E1,6.0870156E0,1.1830313E1,1.5038419E0,7.1404862E0,3.0257816E1,5.3844523E0,1.9052943E0,2.6232955E0,3.4790676E0,1.1216275E1,2.3342527E1,6.9850836E0,7.66226E0,2.594115E0,3.4929006E0],"tree_param":{"num_deleted":"0","num_feature":"7","num_nodes":"45","size_leaf_vector":"1"}},{"base_weights":[2.5245884E-2,-3.5932213E-1,5.14998E-2,-4.928794E-1,3.5211615E-2,1.8982511E-2,5.7251304E-2,-6.228927E-3,-5.749737E-2,5.4386128E-2,-2.6411319E-3,1.6775573E-2,-4.3338668E-1,-4.932571E-2,3.3992846E-2,-7.3953466E-3,-5.093819E-2,2.0734265E-2,-1.6729309E-3],"categories":[],"categories_nodes":[],"categories_segments":[],"categories_sizes":[],"default_left":[0,0,0,0,0,0,0,0,0,0,0,0,0,0,0,0,0,0,0],"id":22,"left_children":[1,3,5,7,-1,9,-1,-1,-1,-1,11,13,15,-1,17,-1,-1,-1,-1],"loss_changes":[1.4755508E0,1.0617589E0,2.2926493E0,2.571237E-1,0E0,1.4656994E0,0E0,0E0,0E0,0E0,1.051915E0,1.0747309E0,1.10505104E-1,0E0,1.036428E0,0E0,0E0,0E0,0E0],"parents":[2147483647,0,0,1,1,2,2,3,3,5,5,10,10,11,11,12,12,14,14],"right_children":[2,4,6,8,-1,10,-1,-1,-1,-1,12,14,16,-1,18,-1,-1,-1,-1],"split_conditions":[1.507E1,5E0,8.9E1,1.748689E9,3.5211615E-2,2.444E1,5.7251304E-2,-6.228927E-3,-5.749737E-2,5.4386128E-2,1.904E2,3.508E1,1.7486033E9,-4.932571E-2,6.405E1,-7.3953466E-3,-5.093819E-2,2.0734265E-2,-1.6729309E-3],"split_indices":[0,1,4,5,0,0,0,0,0,0,0,0,5,0,0,0,0,0,0],"split_type":[0,0,0,0,0,0,0,0,0,0,0,0,0,0,0,0,0,0,0],"sum_hessian":[1.4331319E2,8.347812E0,1.3496538E2,7.287034E0,1.0607772E0,1.2801234E2,6.9530263E0,1.4484693E0,5.838565E0,4.109507E0,1.2390284E2,1.1947818E2,4.4246597E0,2.99867E0,1.1647951E2,1.1166053E0,3.3080547E0,2.5667965E1,9.081155E1],"tree_param":{"num_deleted":"0","num_feature":"7","num_nodes":"19","size_leaf_vector":"1"}},{"base_weights":[-6.822932E-3,-4.7270763E-1,1.6527502E-2,-1.07408855E-2,-5.4864246E-2,4.3527227E-2,-4.2263776E-1,2.0733692E-2,3.542663E-1,-5.213405E-2,-2.3301369E-1,-1.9592257E-2,1.9069508E-1,5.349744E-2,8.9625046E-2,-2.3755303E-3,-3.9675016E-2,7.2898604E-3,-5.554191E-2,-4.26965E-2,2.5529426E-1,-4.370043E-2,4.460397E-2,-3.3300098E-2,4.0139863E-3,5.6139585E-2,1.0742831E-2],"categories":[],"categories_nodes":[],"categories_segments":[],"categories_sizes":[],"default_left":[0,0,0,0,0,0,0,0,0,0,0,0,0,0,0,0,0,0,0,0,0,0,0,0,0,0,0],"id":23,"left_children":[1,3,5,-1,-1,7,9,11,13,-1,15,17,19,-1,21,-1,-1,23,-1,-1,25,-1,-1,-1,-1,-1,-1],"loss_changes":[1.6029547E0,1.3613808E-1,1.6855242E0,0E0,0E0,9.372375E-1,3.2681704E-2,8.6259496E-1,3.8493407E-1,0E0,1.4913908E-1,1.4759657E0,1.0715346E0,0E0,1.109793E0,0E0,0E0,1.1121315E0,0E0,0E0,9.5650685E-1,0E0,0E0,0E0,0E0,0E0,0E0],"parents":[2147483647,0,0,1,1,2,2,5,5,6,6,7,7,8,8,10,10,11,11,12,12,14,14,17,17,20,20],"right_children":[2,4,6,-1,-1,8,10,12,14,-1,16,18,20,-1,22,-1,-1,24,-1,-1,26,-1,-1,-1,-1,-1,-1],"split_conditions":[1.507E1,2E0,1.8911E2,-1.07408855E-2,-5.4864246E-2,8.9E1,2E1,1.6929E2,1.7488081E9,-5.213405E-2,4.7E1,1.6436E2,1.7485544E9,5.349744E-2,1.7491827E9,-2.3755303E-3,-3.9675016E-2,1E0,-5.554191E-2,-4.26965E-2,1.7487304E9,-4.370043E-2,4.460397E-2,-3.3300098E-2,4.0139863E-3,5.6139585E-2,1.0742831E-2],"split_indices":[0,6,0,0,0,4,3,0,5,0,4,0,5,0,5,0,0,6,0,0,5,0,0,0,0,0,0],"split_type":[0,0,0,0,0,0,0,0,0,0,0,0,0,0,0,0,0,0,0,0,0,0,0,0,0,0,0],"sum_hessian":[1.4563106E2,6.0322556E0,1.395988E2,1.4536566E0,4.578599E0,1.3236212E2,7.2366896E0,1.2431035E2,8.05177E0,3.6088705E0,3.6278193E0,1.0118692E2,2.3123425E1,4.177613E0,3.8741577E0,2.095198E0,1.5326213E0,9.729222E1,3.8946981E0,1.6582973E0,2.1465128E1,1.4724259E0,2.4017317E0,7.7608733E0,8.953135E1,6.0806813E0,1.5384446E1],"tree_param":{"num_deleted":"0","num_feature":"7","num_nodes":"27","size_leaf_vector":"1"}},{"base_weights":[6.496939E-4,2.5312442E-1,-2.7155655E-2,-1.8027619E-1,3.920773E-1,-1.362426E-2,-4.945908E-2,1.0016742E-2,-4.0292364E-2,2.717158E-3,4.440354E-1,-1.604195E-1,1.9162156E-2,2.2266605E-1,5.524182E-2,-1.4408791E-2,-4.468497E-1,1.1589432E-1,-4.916329E-2,-4.6800724E-3,4.4170182E-2,-1.4823422E-1,3.898902E-1,2.6162171E-3,-5.6957778E-2,3.8909847E-1,5.4532535E-2,-2.1399292E-1,4.302261E-2,-2.8988434E-2,3.350015E-2,3.6790327E-3,5.0698567E-2,-7.956422E-3,5.5526316E-2,-3.9140698E-2,1.234948E-2,-4.6209525E-2,-8.088174E-3,3.856993E-2,-7.223205E-3],"categories":[],"categories_nodes":[],"categories_segments":[],"categories_sizes":[],"default_left":[0,0,0,0,0,0,0,0,0,0,0,0,0,0,0,0,0,0,0,0,0,0,0,0,0,0,0,0,0,0,0,0,0,0,0,0,0,0,0,0,0],"id":24,"left_children":[1,3,5,7,9,11,-1,-1,-1,-1,13,15,17,19,-1,21,23,25,27,-1,-1,29,31,-1,-1,33,35,37,39,-1,-1,-1,-1,-1,-1,-1,-1,-1,-1,-1,-1],"loss_changes":[1.0188549E0,9.377472E-1,8.2030016E-1,3.0138636E-1,2.0061314E-1,6.196327E-1,0E0,0E0,0E0,0E0,1.1101937E-1,9.7617096E-1,7.037067E-1,3.08774E-1,0E0,9.557008E-1,4.7348988E-1,7.166665E-1,9.6034074E-1,0E0,0E0,1.0001706E0,1.6337818E-1,0E0,0E0,6.601503E-1,1.1894438E0,7.0962155E-1,1.6462247E0,0E0,0E0,0E0,0E0,0E0,0E0,0E0,0E0,0E0,0E0,0E0,0E0],"parents":[2147483647,0,0,1,1,2,2,3,3,4,4,5,5,10,10,11,11,12,12,13,13,15,15,16,16,17,17,18,18,21,21,22,22,25,25,26,26,27,27,28,28],"right_children":[2,4,6,8,10,12,-1,-1,-1,-1,14,16,18,20,-1,22,24,26,28,-1,-1,30,32,-1,-1,34,36,38,40,-1,-1,-1,-1,-1,-1,-1,-1,-1,-1,-1,-1],"split_conditions":[7E0,3E0,6E1,2E0,7E0,2E1,-4.945908E-2,1.0016742E-2,-4.0292364E-2,2.717158E-3,4E0,3E1,3.3E1,1.7487215E9,5.524182E-2,2.5E1,1.7485624E9,1.7485524E9,4.2E1,-4.6800724E-3,4.4170182E-2,5E0,9E0,2.6162171E-3,-5.6957778E-2,3E0,1.7486015E9,1.7486148E9,4.7E1,-2.8988434E-2,3.350015E-2,3.6790327E-3,5.0698567E-2,-7.956422E-3,5.5526316E-2,-3.9140698E-2,1.234948E-2,-4.6209525E-2,-8.088174E-3,3.856993E-2,-7.223205E-3],"split_indices":[2,6,2,6,3,2,0,0,0,0,2,3,2,5,0,3,5,5,2,0,0,1,2,0,0,1,5,5,2,0,0,0,0,0,0,0,0,0,0,0,0],"split_type":[0,0,0,0,0,0,0,0,0,0,0,0,0,0,0,0,0,0,0,0,0,0,0,0,0,0,0,0,0,0,0,0,0,0,0,0,0,0,0,0,0],"sum_hessian":[1.4315382E2,1.3397752E1,1.2975607E2,3.1804345E0,1.0217318E1,1.2710574E2,2.650332E0,1.6509846E0,1.5294498E0,1.4633132E0,8.7540045E0,2.249511E1,1.04610634E2,3.881194E0,4.87281E0,1.5595467E1,6.899642E0,4.301528E1,6.159535E1,2.0928354E0,1.7883589E0,1.2192898E1,3.4025688E0,1.5834852E0,5.316157E0,6.909722E0,3.610556E1,2.161899E1,3.997636E1,9.738411E0,2.4544866E0,1.1746421E0,2.2279267E0,1.9450207E0,4.964701E0,4.209495E0,3.1896065E1,6.685873E0,1.4933116E1,9.47089E0,3.050547E1],"tree_param":{"num_deleted":"0","num_feature":"7","num_nodes":"41","size_leaf_vector":"1"}},{"base_weights":[1.0364205E-2,-3.96319E-1,3.6053363E-2,-3.5386463E-3,-4.5908686E-2,9.403332E-2,-1.3388555E-1,1.816778E-2,2.7249068E-1,2.8260761E-1,-2.1429174E-1,-5.270213E-2,5.709828E-2,1.5204576E-1,5.3047085E-1,4.3422243E-1,-9.672582E-3,-3.919363E-1,-6.87201E-2,1.5120724E-1,-1.6897619E-1,5.0207075E-2,6.3324147E-3,1.7121714E-2,5.8479287E-2,5.105945E-2,9.295224E-3,-6.0337055E-2,-6.89563E-2,1.4139093E-1,-3.2816264E-1,5.136345E-2,4.097987E-3,1.4538864E-2,-3.9009538E-2,2.602431E-2,-2.9926835E-2,-4.656903E-2,3.1263698E-2,-4.2893626E-2,2.9558642E-2,-4.7907043E-2,9.488119E-3],"categories":[],"categories_nodes":[],"categories_segments":[],"categories_sizes":[],"default_left":[0,0,0,0,0,0,0,0,0,0,0,0,0,0,0,0,0,0,0,0,0,0,0,0,0,0,0,0,0,0,0,0,0,0,0,0,0,0,0,0,0,0,0],"id":25,"left_children":[1,3,5,-1,-1,7,9,11,13,15,17,-1,19,21,23,25,-1,27,29,31,33,-1,35,-1,-1,-1,-1,-1,37,39,41,-1,-1,-1,-1,-1,-1,-1,-1,-1,-1,-1,-1],"loss_changes":[1.4868045E0,1.7536175E-1,1.3278611E0,0E0,0E0,1.3505251E0,1.2115841E0,1.5439056E0,8.4512186E-1,3.8667122E-1,7.3277164E-1,0E0,1.4610722E0,1.1042612E0,7.709432E-2,6.888181E-2,0E0,8.474226E-1,9.926687E-1,1.9032601E0,1.4680836E0,0E0,1.3460771E0,0E0,0E0,0E0,0E0,0E0,1.0962797E0,1.0317318E0,5.6056845E-1,0E0,0E0,0E0,0E0,0E0,0E0,0E0,0E0,0E0,0E0,0E0,0E0],"parents":[2147483647,0,0,1,1,2,2,5,5,6,6,7,7,8,8,9,9,10,10,12,12,13,13,14,14,15,15,17,17,18,18,19,19,20,20,22,22,28,28,29,29,30,30],"right_children":[2,4,6,-1,-1,8,10,12,14,16,18,-1,20,22,24,26,-1,28,30,32,34,-1,36,-1,-1,-1,-1,-1,38,40,42,-1,-1,-1,-1,-1,-1,-1,-1,-1,-1,-1,-1],"split_conditions":[1.507E1,1.748689E9,4.7E1,-3.5386463E-3,-4.5908686E-2,1.7490825E9,2E0,5E0,1.5872E2,1.7493591E9,5.2E1,-5.270213E-2,1.748802E9,6.567E1,2E0,5.2E1,-9.672582E-3,1.7489943E9,4E0,2E1,2.4E1,5.0207075E-2,1.7494188E9,1.7121714E-2,5.8479287E-2,5.105945E-2,9.295224E-3,-6.0337055E-2,4E0,1.2E1,1.7494034E9,5.136345E-2,4.097987E-3,1.4538864E-2,-3.9009538E-2,2.602431E-2,-2.9926835E-2,-4.656903E-2,3.1263698E-2,-4.2893626E-2,2.9558642E-2,-4.7907043E-2,9.488119E-3],"split_indices":[0,5,2,0,0,5,1,2,0,5,2,0,5,0,1,2,0,5,1,4,2,0,5,0,0,0,0,0,1,4,5,0,0,0,0,0,0,0,0,0,0,0,0],"split_type":[0,0,0,0,0,0,0,0,0,0,0,0,0,0,0,0,0,0,0,0,0,0,0,0,0,0,0,0,0,0,0,0,0,0,0,0,0,0,0,0,0,0,0],"sum_hessian":[1.3994635E2,7.4576325E0,1.3248872E2,1.3364484E0,6.121184E0,9.911814E1,3.3370583E1,7.032394E1,2.8794207E1,4.9929624E0,2.8377619E1,3.8513608E0,6.647257E1,2.071311E1,8.081098E0,3.4638188E0,1.5291433E0,1.2018617E1,1.6359001E1,4.7168648E1,1.9303926E1,5.369404E0,1.5343706E1,1.6067681E0,6.4743295E0,2.4249792E0,1.0388397E0,6.738934E0,5.279683E0,9.290256E0,7.0687466E0,1.0146667E1,3.7021984E1,8.112658E0,1.1191268E1,8.4616785E0,6.8820276E0,2.4804404E0,2.7992425E0,1.5979826E0,7.692273E0,5.1125617E0,1.9561849E0],"tree_param":{"num_deleted":"0","num_feature":"7","num_nodes":"43","size_leaf_vector":"1"}},{"base_weights":[-2.3766713E-2,-5.568934E-3,-5.164315E-2,-3.1035244E-1,1.992468E-2,1.9321952E-2,-4.0564772E-1,2.2498074E-1,-1.2826046E-2,3.4954944E-3,-4.67426E-2,-4.0743694E-2,3.2484964E-1,6.0029674E-2,-1.2527834E-1,-1.3143355E-1,4.6294498E-1,-1.22357845E-1,1.6421375E-1,-3.4173968E-1,2.726218E-2,-4.257914E-2,3.4610268E-2,5.3986307E-2,7.778633E-3,9.25588E-3,-3.2800823E-2,-1.39526045E-2,2.8738638E-2,-4.8620686E-2,-1.3500585E-2,4.3025535E-2,-1.1407851E-2],"categories":[],"categories_nodes":[],"categories_segments":[],"categories_sizes":[],"default_left":[0,0,0,0,0,0,0,0,0,0,0,0,0,0,0,0,0,0,0,0,0,0,0,0,0,0,0,0,0,0,0,0,0],"id":26,"left_children":[1,3,-1,5,7,-1,9,11,13,-1,-1,-1,15,17,19,21,23,25,27,29,31,-1,-1,-1,-1,-1,-1,-1,-1,-1,-1,-1,-1],"loss_changes":[1.187459E0,1.0089159E0,0E0,5.5929613E-1,8.0897254E-1,0E0,2.5449872E-1,1.1798075E0,8.6321837E-1,0E0,0E0,0E0,9.983821E-1,1.2373066E0,1.3759E0,7.42779E-1,3.0294394E-1,1.0849776E0,1.5813478E0,4.47551E-1,1.4847229E0,0E0,0E0,0E0,0E0,0E0,0E0,0E0,0E0,0E0,0E0,0E0,0E0],"parents":[2147483647,0,0,1,1,3,3,4,4,6,6,7,7,8,8,12,12,13,13,14,14,15,15,16,16,17,17,18,18,19,19,20,20],"right_children":[2,4,-1,6,8,-1,10,12,14,-1,-1,-1,16,18,20,22,24,26,28,30,32,-1,-1,-1,-1,-1,-1,-1,-1,-1,-1,-1,-1],"split_conditions":[5.9E1,1E0,-5.164315E-2,6E0,2E0,1.9321952E-2,1.2E1,8E0,3.5E1,3.4954944E-3,-4.67426E-2,-4.0743694E-2,1.3E1,4.6E1,4.4E1,5.1E1,4.9E1,1.9E1,1.7E1,5E0,1.6E1,-4.257914E-2,3.4610268E-2,5.3986307E-2,7.778633E-3,9.25588E-3,-3.2800823E-2,-1.39526045E-2,2.8738638E-2,-4.8620686E-2,-1.3500585E-2,4.3025535E-2,-1.1407851E-2],"split_indices":[2,6,0,2,6,0,4,4,2,0,0,0,3,4,2,2,2,4,3,6,3,0,0,0,0,0,0,0,0,0,0,0,0],"split_type":[0,0,0,0,0,0,0,0,0,0,0,0,0,0,0,0,0,0,0,0,0,0,0,0,0,0,0,0,0,0,0,0,0],"sum_hessian":[1.3176979E2,1.2805121E2,3.7185812E0,9.021604E0,1.1902961E2,1.2720551E0,7.7495484E0,1.5584399E1,1.0344521E2,1.0063617E0,6.743187E0,1.7053823E0,1.3879017E1,6.305757E1,4.0387638E1,3.235799E0,1.0643218E1,2.2861376E1,4.0196198E1,1.6182985E1,2.4204653E1,2.06888E0,1.1669191E0,8.536728E0,2.1064904E0,1.14477415E1,1.1413634E1,1.1559088E1,2.863711E1,8.730321E0,7.4526634E0,5.754167E0,1.8450485E1],"tree_param":{"num_deleted":"0","num_feature":"7","num_nodes":"33","size_leaf_vector":"1"}},{"base_weights":[1.9847427E-3,2.4186935E-1,-2.669873E-2,-3.3723693E-2,3.108774E-1,3.384646E-1,-5.1570285E-2,9.644599E-2,4.9934202E-1,4.3973863E-1,1.8057982E-3,-6.710981E-2,3.6388263E-1,2.519395E-1,-3.5931915E-2,5.6383908E-2,1.40713155E-2,1.0803042E-2,5.073024E-2,6.0180943E-3,-1.5378246E-1,7.0911907E-3,4.3498497E-2,-6.1845217E-2,4.804872E-2,1.0091385E-1,-1.9516641E-1,-2.4659212E-1,1.7424805E-1,3.297935E-2,-3.9980236E-2,-2.3474796E-2,1.721984E-2,-4.1357856E-2,1.0806615E-2,4.3750363E-3,-3.578354E-2,2.8668655E-2,-1.5928058E-2],"categories":[],"categories_nodes":[],"categories_segments":[],"categories_sizes":[],"default_left":[0,0,0,0,0,0,0,0,0,0,0,0,0,0,0,0,0,0,0,0,0,0,0,0,0,0,0,0,0,0,0,0,0,0,0,0,0,0,0],"id":27,"left_children":[1,3,5,-1,7,9,11,13,15,17,-1,19,21,23,-1,-1,-1,-1,-1,25,27,-1,-1,29,-1,31,33,35,37,-1,-1,-1,-1,-1,-1,-1,-1,-1,-1],"loss_changes":[9.543528E-1,6.9679105E-1,1.1431772E0,0E0,5.0774455E-1,2.528218E-1,7.7919936E-1,6.3436717E-1,8.446443E-2,8.108282E-2,0E0,7.205722E-1,6.0206473E-2,4.8221138E-1,0E0,0E0,0E0,0E0,0E0,1.2137749E0,1.6259689E0,0E0,0E0,6.010523E-1,0E0,1.0730865E0,1.3949122E0,1.3380752E0,4.976666E-1,0E0,0E0,0E0,0E0,0E0,0E0,0E0,0E0,0E0,0E0],"parents":[2147483647,0,0,1,1,2,2,4,4,5,5,6,6,7,7,8,8,9,9,11,11,12,12,13,13,19,19,20,20,23,23,25,25,26,26,27,27,28,28],"right_children":[2,4,6,-1,8,10,12,14,16,18,-1,20,22,24,-1,-1,-1,-1,-1,26,28,-1,-1,30,-1,32,34,36,38,-1,-1,-1,-1,-1,-1,-1,-1,-1,-1],"split_conditions":[7E0,7E0,1.7485283E9,-3.3723693E-2,1.7488835E9,3.2E1,9.2E1,1.7486915E9,6E0,1.9E1,1.8057982E-3,4E0,2E0,4E0,-3.5931915E-2,5.6383908E-2,1.40713155E-2,1.0803042E-2,5.073024E-2,6.4E1,1.7493188E9,7.0911907E-3,4.3498497E-2,3E0,4.804872E-2,2E1,7.9E1,1.7486762E9,1.749616E9,3.297935E-2,-3.9980236E-2,-2.3474796E-2,1.721984E-2,-4.1357856E-2,1.0806615E-2,4.3750363E-3,-3.578354E-2,2.8668655E-2,-1.5928058E-2],"split_indices":[2,4,5,0,5,2,4,5,2,2,0,1,6,1,0,0,0,0,0,4,5,0,0,1,0,2,4,5,5,0,0,0,0,0,0,0,0,0,0],"split_type":[0,0,0,0,0,0,0,0,0,0,0,0,0,0,0,0,0,0,0,0,0,0,0,0,0,0,0,0,0,0,0,0,0,0,0,0,0,0,0],"sum_hessian":[1.3676099E2,1.3812491E1,1.22948494E2,1.0568266E0,1.2755665E1,7.0361075E0,1.15912384E2,6.6739354E0,6.0817294E0,5.063271E0,1.9728367E0,1.12541374E2,3.3710103E0,5.309655E0,1.36428E0,4.6697054E0,1.412024E0,1.2965798E0,3.7666912E0,6.1544926E1,5.099645E1,1.0484184E0,2.3225918E0,2.5449557E0,2.7646997E0,4.2158016E1,1.9386911E1,3.99435E1,1.1052949E1,1.1900418E0,1.354914E0,6.983111E0,3.5174904E1,1.1058096E1,8.328816E0,1.1232816E1,2.8710684E1,8.371284E0,2.6816657E0],"tree_param":{"num_deleted":"0","num_feature":"7","num_nodes":"39","size_leaf_vector":"1"}},{"base_weights":[9.385397E-3,-9.669117E-2,8.4308445E-2,2.2072045E-2,-3.5799387E-1,1.8765971E-1,-1.009812E-1,-1.06470756E-1,2.0208384E-1,-5.391625E-1,-9.534577E-2,-3.4385613E-1,2.548791E-1,3.117084E-1,-2.889722E-1,1.9649357E-1,-2.80371E-1,3.7186828E-1,-8.373681E-2,-1.5084945E-2,-5.7830233E-2,3.643251E-1,-5.204776E-2,-5.0002187E-2,8.290423E-3,6.549461E-2,4.122609E-1,4.1556995E-2,-5.740187E-3,9.954754E-3,-3.9454004E-1,-4.098784E-2,4.1575593E-1,-1.5979622E-1,-5.1642846E-2,-1.592186E-2,4.5527805E-2,-3.5787854E-1,3.412873E-2,4.6953853E-2,-2.9043833E-4,2.0283388E-1,-5.046491E-2,2.0608076E-1,4.5122653E-1,-3.7246842E-2,2.161666E-1,2.5227478E-2,-4.6786454E-1,5.3920846E-2,-1.22905485E-2,-3.5424404E-2,2.733604E-2,-1.4364577E-2,-4.4222534E-2,-4.145812E-3,2.9834522E-2,4.88048E-2,-3.890997E-2,5.514896E-2,2.6132232E-2,4.027851E-2,-2.3102649E-3,3.228495E-2,-3.029334E-2,-6.006802E-2,-1.1053107E-2],"categories":[],"categories_nodes":[],"categories_segments":[],"categories_sizes":[],"default_left":[0,0,0,0,0,0,0,0,0,0,0,0,0,0,0,0,0,0,0,0,0,0,0,0,0,0,0,0,0,0,0,0,0,0,0,0,0,0,0,0,0,0,0,0,0,0,0,0,0,0,0,0,0,0,0,0,0,0,0,0,0,0,0,0,0,0,0],"id":28,"left_children":[1,3,5,7,9,11,13,15,17,19,21,23,25,27,29,31,33,35,37,-1,-1,39,-1,-1,-1,41,43,-1,-1,45,47,-1,49,51,-1,-1,-1,53,-1,-1,-1,55,-1,57,59,-1,61,63,65,-1,-1,-1,-1,-1,-1,-1,-1,-1,-1,-1,-1,-1,-1,-1,-1,-1,-1],"loss_changes":[1.0559765E0,1.715982E0,1.5088418E0,9.189325E-1,7.697511E-1,1.8845395E0,2.3017714E0,1.2816782E0,8.3195E-1,6.471586E-2,1.8036629E0,4.461316E-1,1.3208559E0,3.8433123E-1,6.3837874E-1,1.3773745E0,3.5020018E-1,5.3922164E-1,9.337751E-1,0E0,0E0,1.774227E-1,0E0,0E0,0E0,1.8025475E0,1.0391092E-1,0E0,0E0,5.712227E-1,4.6987152E-1,0E0,5.426469E-1,1.0663834E0,0E0,0E0,0E0,2.1814108E-2,0E0,0E0,0E0,4.3728465E-1,0E0,1.1525661E0,2.3235607E-1,0E0,2.1807115E-1,4.0661806E-1,5.3731346E-1,0E0,0E0,0E0,0E0,0E0,0E0,0E0,0E0,0E0,0E0,0E0,0E0,0E0,0E0,0E0,0E0,0E0,0E0],"parents":[2147483647,0,0,1,1,2,2,3,3,4,4,5,5,6,6,7,7,8,8,9,9,10,10,11,11,12,12,13,13,14,14,15,15,16,16,17,17,18,18,21,21,25,25,26,26,29,29,30,30,32,32,33,33,37,37,41,41,43,43,44,44,46,46,47,47,48,48],"right_children":[2,4,6,8,10,12,14,16,18,20,22,24,26,28,30,32,34,36,38,-1,-1,40,-1,-1,-1,42,44,-1,-1,46,48,-1,50,52,-1,-1,-1,54,-1,-1,-1,56,-1,58,60,-1,62,64,66,-1,-1,-1,-1,-1,-1,-1,-1,-1,-1,-1,-1,-1,-1,-1,-1,-1,-1],"split_conditions":[4.4E1,2.9E1,3.5E1,1.8E1,3.1E1,2E0,6.1E1,2.3E1,4E0,9E0,3.9E1,3E1,2.1E1,2.6E1,3E0,3E0,4.8E1,1.9E1,4.9E1,-1.5084945E-2,-5.7830233E-2,4E0,-5.204776E-2,-5.0002187E-2,8.290423E-3,1.6E1,1.7E1,4.1556995E-2,-5.740187E-3,7.3E1,8E0,-4.098784E-2,5E0,3.7E1,-5.1642846E-2,-1.592186E-2,4.5527805E-2,1.5E1,3.412873E-2,4.6953853E-2,-2.9043833E-4,3E0,-5.046491E-2,1.3E1,3.1E1,-3.7246842E-2,8.1E1,4E0,6E0,5.3920846E-2,-1.22905485E-2,-3.5424404E-2,2.733604E-2,-1.4364577E-2,-4.4222534E-2,-4.145812E-3,2.9834522E-2,4.88048E-2,-3.890997E-2,5.514896E-2,2.6132232E-2,4.027851E-2,-2.3102649E-3,3.228495E-2,-3.029334E-2,-6.006802E-2,-1.1053107E-2],"split_indices":[4,4,2,4,3,1,4,3,1,2,3,2,2,3,1,6,2,2,2,0,0,1,0,0,0,2,3,0,0,4,3,0,1,2,0,0,0,3,0,0,0,6,0,3,2,0,4,1,6,0,0,0,0,0,0,0,0,0,0,0,0,0,0,0,0,0,0],"split_type":[0,0,0,0,0,0,0,0,0,0,0,0,0,0,0,0,0,0,0,0,0,0,0,0,0,0,0,0,0,0,0,0,0,0,0,0,0,0,0,0,0,0,0,0,0,0,0,0,0,0,0,0,0,0,0,0,0,0,0,0,0,0,0,0,0,0,0],"sum_hessian":[1.3084198E2,5.4040512E1,7.680147E1,3.7783348E1,1.6257164E1,4.929359E1,2.7507877E1,2.2281273E1,1.5502075E1,8.997856E0,7.2593083E0,5.0721054E0,4.4221485E1,8.402996E0,1.9104883E1,8.078029E0,1.4203245E1,9.536253E0,5.965822E0,1.2683592E0,7.729497E0,3.556691E0,3.7026174E0,3.5876105E0,1.4844947E0,2.0712894E1,2.350859E1,6.4595222E0,1.9434732E0,5.2225E0,1.3882382E1,1.9143966E0,6.163632E0,1.0511209E1,3.6920366E0,1.1710521E0,8.365201E0,3.72267E0,2.2431521E0,2.5480597E0,1.0086311E0,1.7211208E1,3.5016873E0,4.7362576E0,1.8772333E1,1.5471128E0,3.6753871E0,2.1619008E0,1.1720482E1,5.013583E0,1.1500483E0,7.380305E0,3.1309032E0,1.8152206E0,1.9074495E0,4.9967685E0,1.2214439E1,3.3358812E0,1.4003764E0,1.10397005E1,7.7326326E0,1.6809387E0,1.9944483E0,1.1421895E0,1.0197113E0,8.04811E0,3.6723719E0],"tree_param":{"num_deleted":"0","num_feature":"7","num_nodes":"67","size_leaf_vector":"1"}},{"base_weights":[-6.4371633E-3,1.3523075E-2,-4.2659692E-2,9.091452E-2,-9.573547E-2,-2.6523614E-1,1.5000445E-1,-2.2046027E-1,1.9150928E-1,2.042849E-1,-4.312455E-1,5.6990236E-2,9.7979054E-2,-5.949312E-2,-6.361264E-2,3.830217E-1,-8.417133E-2,-2.894528E-3,3.4503732E-2,-2.1914223E-1,-5.2990574E-2,-1.9856614E-1,1.9226699E-1,1.4083564E-1,-2.3582138E-1,9.776691E-2,4.9766205E-2,3.92398E-2,-3.0733266E-1,-4.00156E-2,4.0322747E-3,2.3955379E-2,-2.9576555E-2,-2.0473663E-2,2.290573E-2,-6.649272E-3,4.425845E-2,-3.3970784E-2,2.992991E-2,4.170045E-2,-3.5668895E-2,-5.263105E-2,3.3642393E-2],"categories":[],"categories_nodes":[],"categories_segments":[],"categories_sizes":[],"default_left":[0,0,0,0,0,0,0,0,0,0,0,0,0,0,0,0,0,0,0,0,0,0,0,0,0,0,0,0,0,0,0,0,0,0,0,0,0,0,0,0,0,0,0],"id":29,"left_children":[1,3,-1,5,7,9,11,13,15,17,19,-1,21,-1,23,25,27,-1,-1,29,-1,31,33,35,37,39,-1,-1,41,-1,-1,-1,-1,-1,-1,-1,-1,-1,-1,-1,-1,-1,-1],"loss_changes":[1.0938854E0,1.0642378E0,0E0,1.5883765E0,1.9140298E0,9.3244284E-1,1.3368549E0,2.1290941E0,8.9561015E-1,1.251529E-1,5.80734E-2,0E0,1.6579888E0,0E0,9.881228E-1,2.727914E-1,9.207062E-1,0E0,0E0,2.2034591E-1,0E0,6.86968E-1,6.9633174E-1,8.443758E-1,9.408726E-1,7.3811215E-1,0E0,0E0,9.784228E-1,0E0,0E0,0E0,0E0,0E0,0E0,0E0,0E0,0E0,0E0,0E0,0E0,0E0,0E0],"parents":[2147483647,0,0,1,1,3,3,4,4,5,5,6,6,7,7,8,8,9,9,10,10,12,12,14,14,15,15,16,16,19,19,21,21,22,22,23,23,24,24,25,25,28,28],"right_children":[2,4,-1,6,8,10,12,14,16,18,20,-1,22,-1,24,26,28,-1,-1,30,-1,32,34,36,38,40,-1,-1,42,-1,-1,-1,-1,-1,-1,-1,-1,-1,-1,-1,-1,-1,-1],"split_conditions":[1.904E2,3.5E1,-4.2659692E-2,1.6E1,1.5105E2,5.164E1,2E1,4.3E1,4.7E1,4.064E1,1.8E1,5.6990236E-2,4.6E1,-5.949312E-2,2.7E1,3E0,8E0,-2.894528E-3,3.4503732E-2,1.1E1,-5.2990574E-2,5E0,1E0,2E1,4.7E1,2E0,4.9766205E-2,3.92398E-2,5.5E1,-4.00156E-2,4.0322747E-3,2.3955379E-2,-2.9576555E-2,-2.0473663E-2,2.290573E-2,-6.649272E-3,4.425845E-2,-3.3970784E-2,2.992991E-2,4.170045E-2,-3.5668895E-2,-5.263105E-2,3.3642393E-2],"split_indices":[0,2,0,4,0,0,4,2,2,0,3,0,4,0,3,6,3,0,0,3,0,2,6,3,3,6,0,0,2,0,0,0,0,0,0,0,0,0,0,0,0,0,0],"split_type":[0,0,0,0,0,0,0,0,0,0,0,0,0,0,0,0,0,0,0,0,0,0,0,0,0,0,0,0,0,0,0,0,0,0,0,0,0,0,0,0,0,0,0],"sum_hessian":[1.2874638E2,1.2383143E2,4.9149594E0,7.258498E1,5.124645E1,9.832601E0,6.2752377E1,3.589357E1,1.5352879E1,2.5081856E0,7.324415E0,5.820523E0,5.6931854E1,9.771421E0,2.6122149E1,8.829648E0,6.523231E0,1.2429463E0,1.2652392E0,3.347983E0,3.9764326E0,1.3467918E1,4.3463936E1,1.202642E1,1.4095729E1,3.0624056E0,5.767242E0,1.8385592E0,4.684672E0,1.6527319E0,1.695251E0,2.1794827E0,1.1288435E1,3.2990446E0,4.016489E1,7.590625E0,4.4357944E0,1.2109925E1,1.9858044E0,1.8472168E0,1.2151887E0,3.6317482E0,1.0529234E0],"tree_param":{"num_deleted":"0","num_feature":"7","num_nodes":"43","size_leaf_vector":"1"}},{"base_weights":[1.4856453E-2,-3.89171E-1,3.451948E-2,-2.526081E-3,-4.745954E-2,5.4258946E-2,-3.9756042E-1,6.940773E-3,2.5071245E-1,-4.6891853E-2,-1.0647296E-2,9.1149315E-2,-1.3740134E-1,-7.801641E-2,3.7929362E-1,-3.4071428E-1,1.3840799E-1,-2.2063742E-3,-4.1392276E-1,-2.6483667E-1,3.609159E-2,1.9597164E-1,5.5749085E-2,1.976362E-2,-4.8890956E-2,-5.724728E-3,2.5450716E-2,9.952296E-3,-2.651365E-2,-5.7150215E-2,1.1585025E-2,3.0563178E-3,-4.430152E-2,3.219559E-2,-3.667422E-2],"categories":[],"categories_nodes":[],"categories_segments":[],"categories_sizes":[],"default_left":[0,0,0,0,0,0,0,0,0,0,0,0,0,0,0,0,0,0,0,0,0,0,0,0,0,0,0,0,0,0,0,0,0,0,0],"id":30,"left_children":[1,3,5,-1,-1,7,9,11,13,-1,-1,15,17,19,21,23,25,27,29,31,-1,33,-1,-1,-1,-1,-1,-1,-1,-1,-1,-1,-1,-1,-1],"loss_changes":[9.935253E-1,1.6852897E-1,1.0327889E0,0E0,0E0,1.0604188E0,6.015998E-2,1.1442759E0,9.658669E-1,0E0,0E0,1.2595916E0,1.2965188E0,6.7430866E-1,4.1647363E-1,5.871548E-1,1.247052E0,6.767437E-1,1.0171258E0,3.0445972E-1,0E0,7.8976154E-1,0E0,0E0,0E0,0E0,0E0,0E0,0E0,0E0,0E0,0E0,0E0,0E0,0E0],"parents":[2147483647,0,0,1,1,2,2,5,5,6,6,7,7,8,8,11,11,12,12,13,13,14,14,15,15,16,16,17,17,18,18,19,19,21,21],"right_children":[2,4,6,-1,-1,8,10,12,14,-1,-1,16,18,20,22,24,26,28,30,32,-1,34,-1,-1,-1,-1,-1,-1,-1,-1,-1,-1,-1,-1,-1],"split_conditions":[1.507E1,1.3E1,1.904E2,-2.526081E-3,-4.745954E-2,1.6929E2,2E1,3.6E1,2.6E1,-4.6891853E-2,-1.0647296E-2,1E0,1.1372E2,4E0,3.2E1,2E1,4.6E1,6E1,4.5E1,1.8214E2,3.609159E-2,2.1E1,5.5749085E-2,1.976362E-2,-4.8890956E-2,-5.724728E-3,2.5450716E-2,9.952296E-3,-2.651365E-2,-5.7150215E-2,1.1585025E-2,3.0563178E-3,-4.430152E-2,3.219559E-2,-3.667422E-2],"split_indices":[0,4,0,0,0,0,3,2,4,0,0,6,0,6,3,4,4,4,3,0,0,3,0,0,0,0,0,0,0,0,0,0,0,0,0],"split_type":[0,0,0,0,0,0,0,0,0,0,0,0,0,0,0,0,0,0,0,0,0,0,0,0,0,0,0,0,0,0,0,0,0,0,0],"sum_hessian":[1.2236879E2,4.8068886E0,1.17561905E2,1.1601838E0,3.646705E0,1.1326198E2,4.299923E0,9.211122E1,2.1150759E1,2.962714E0,1.3372087E0,5.8405964E1,3.370526E1,6.057496E0,1.5093262E1,5.1484404E0,5.3257523E1,2.3314482E1,1.0390778E1,4.5272307E0,1.5302655E0,8.474643E0,6.6186194E0,1.0393096E0,4.109131E0,2.0022188E1,3.3235332E1,1.7258532E1,6.0559506E0,7.9479237E0,2.442854E0,2.0150213E0,2.5122094E0,7.2739515E0,1.2006911E0],"tree_param":{"num_deleted":"0","num_feature":"7","num_nodes":"35","size_leaf_vector":"1"}},{"base_weights":[-1.3991805E-2,6.1420365E-3,-5.020761E-2,-2.652581E-1,2.4593513E-2,-4.1335407E-1,2.5430232E-2,-6.823753E-4,2.6999903E-1,-2.753439E-3,-5.007528E-2,7.43809E-2,-1.7656088E-1,-1.9966444E-1,4.481599E-1,5.1953376E-4,2.1640688E-1,-4.0765962E-1,-6.3343905E-3,3.733104E-3,-3.6842313E-2,5.414157E-2,-8.10108E-3,1.1345868E-2,-2.1910224E-2,-9.875164E-3,3.084874E-2,-5.1833E-2,-5.829946E-3,1.548742E-2,-3.5583835E-2],"categories":[],"categories_nodes":[],"categories_segments":[],"categories_sizes":[],"default_left":[0,0,0,0,0,0,0,0,0,0,0,0,0,0,0,0,0,0,0,0,0,0,0,0,0,0,0,0,0,0,0],"id":31,"left_children":[1,3,-1,5,7,9,-1,11,13,-1,-1,15,17,19,21,23,25,27,29,-1,-1,-1,-1,-1,-1,-1,-1,-1,-1,-1,-1],"loss_changes":[1.2186353E0,6.0636234E-1,0E0,6.9836175E-1,7.01555E-1,2.0137012E-1,0E0,1.3796917E0,9.731874E-1,0E0,0E0,7.683182E-1,1.2271345E0,1.5758546E-1,4.369117E-1,1.2450312E0,7.576817E-1,4.818151E-1,1.1265383E0,0E0,0E0,0E0,0E0,0E0,0E0,0E0,0E0,0E0,0E0,0E0,0E0],"parents":[2147483647,0,0,1,1,3,3,4,4,5,5,7,7,8,8,11,11,12,12,13,13,14,14,15,15,16,16,17,17,18,18],"right_children":[2,4,-1,6,8,10,-1,12,14,-1,-1,16,18,20,22,24,26,28,30,-1,-1,-1,-1,-1,-1,-1,-1,-1,-1,-1,-1],"split_conditions":[5.9E1,1.507E1,-5.020761E-2,3.8E1,8.7E1,2.3E1,2.5430232E-2,6.4E1,1.7E1,-2.753439E-3,-5.007528E-2,4.6E1,7.5E1,8E0,1.7511E2,2.9E1,3E0,1.4619E2,3.5E1,3.733104E-3,-3.6842313E-2,5.414157E-2,-8.10108E-3,1.1345868E-2,-2.1910224E-2,-9.875164E-3,3.084874E-2,-5.1833E-2,-5.829946E-3,1.548742E-2,-3.5583835E-2],"split_indices":[2,0,0,3,4,2,0,4,3,0,0,4,4,3,0,4,6,0,2,0,0,0,0,0,0,0,0,0,0,0,0],"split_type":[0,0,0,0,0,0,0,0,0,0,0,0,0,0,0,0,0,0,0,0,0,0,0,0,0,0,0,0,0,0,0],"sum_hessian":[1.2269492E2,1.1878248E2,3.9124498E0,6.7100043E0,1.1207247E2,5.3807E0,1.329304E0,1.0251138E2,9.561087E0,1.2366369E0,4.1440635E0,7.225201E1,3.025938E1,2.5962408E0,6.9648457E0,4.8192764E1,2.4059242E1,1.2243225E1,1.8016155E1,1.4037216E0,1.1925192E0,5.901656E0,1.0631897E0,3.214552E1,1.6047245E1,5.423635E0,1.8635607E1,8.930549E0,3.312676E0,1.2710374E1,5.3057814E0],"tree_param":{"num_deleted":"0","num_feature":"7","num_nodes":"31","size_leaf_vector":"1"}},{"base_weights":[3.12524E-2,5.2702695E-2,-3.142806E-1,1.1574203E-2,2.8656933E-1,-4.5816787E-2,-1.2179474E-1,5.7854135E-2,-2.2467086E-1,3.955838E-1,4.1358746E-3,1.5026613E-2,-2.781241E-2,-2.5256938E-1,9.058223E-2,-4.2783725E-1,5.4439116E-2,9.632227E-2,5.2591056E-2,-4.1300636E-2,2.6567608E-1,-3.3210438E-1,1.4839092E-2,1.6344649E-1,-4.0920105E-2,2.2034816E-2,-5.7300042E-2,-1.5783235E-1,2.984931E-1,3.7923492E-2,-3.673305E-2,4.2431697E-2,-1.1347021E-2,2.8646362E-3,-4.8978023E-2,8.123303E-3,4.091386E-2,-5.4438192E-2,1.2414957E-2,-3.4433242E-2,3.625392E-2,1.1565101E-2,-4.3296408E-2,4.469815E-3,3.9151534E-2],"categories":[],"categories_nodes":[],"categories_segments":[],"categories_sizes":[],"default_left":[0,0,0,0,0,0,0,0,0,0,0,0,0,0,0,0,0,0,0,0,0,0,0,0,0,0,0,0,0,0,0,0,0,0,0,0,0,0,0,0,0,0,0,0,0],"id":32,"left_children":[1,3,5,7,9,-1,11,13,15,17,19,-1,-1,21,23,25,27,29,-1,-1,31,33,-1,35,37,39,-1,41,43,-1,-1,-1,-1,-1,-1,-1,-1,-1,-1,-1,-1,-1,-1,-1,-1],"loss_changes":[9.237839E-1,1.1134427E0,1.463269E-1,1.1039529E0,5.317142E-1,0E0,2.3249836E-1,8.7863857E-1,9.617636E-1,4.3639112E-1,7.462924E-1,0E0,0E0,3.138948E-1,7.438592E-1,6.45486E-1,4.542531E-1,7.968404E-1,0E0,0E0,3.0045515E-1,4.2545253E-1,0E0,9.707581E-1,2.4136515E0,5.398915E-1,0E0,4.1555592E-1,7.69743E-2,0E0,0E0,0E0,0E0,0E0,0E0,0E0,0E0,0E0,0E0,0E0,0E0,0E0,0E0,0E0,0E0],"parents":[2147483647,0,0,1,1,2,2,3,3,4,4,6,6,7,7,8,8,9,9,10,10,13,13,14,14,15,15,16,16,17,17,20,20,21,21,23,23,24,24,25,25,27,27,28,28],"right_children":[2,4,6,8,10,-1,12,14,16,18,20,-1,-1,22,24,26,28,30,-1,-1,32,34,-1,36,38,40,-1,42,44,-1,-1,-1,-1,-1,-1,-1,-1,-1,-1,-1,-1,-1,-1,-1,-1],"split_conditions":[1.8911E2,1.7098E2,2E1,6E0,4.4E1,-4.5816787E-2,2.5E1,1E0,1.2105E2,3E0,1.7488586E9,1.5026613E-2,-2.781241E-2,1.618E2,3.5E1,2.444E1,1.7488219E9,2E0,5.2591056E-2,-4.1300636E-2,3E0,1.74886E9,1.4839092E-2,2.8E1,4.2E1,1.064E1,-5.7300042E-2,1.6155E2,1.4343E2,3.7923492E-2,-3.673305E-2,4.2431697E-2,-1.1347021E-2,2.8646362E-3,-4.8978023E-2,8.123303E-3,4.091386E-2,-5.4438192E-2,1.2414957E-2,-3.4433242E-2,3.625392E-2,1.1565101E-2,-4.3296408E-2,4.469815E-3,3.9151534E-2],"split_indices":[0,0,3,6,2,0,3,6,0,6,5,0,0,0,2,0,5,6,0,0,6,5,0,2,2,0,0,0,0,0,0,0,0,0,0,0,0,0,0,0,0,0,0,0,0],"split_type":[0,0,0,0,0,0,0,0,0,0,0,0,0,0,0,0,0,0,0,0,0,0,0,0,0,0,0,0,0,0,0,0,0,0,0,0,0,0,0,0,0,0,0,0,0],"sum_hessian":[1.2140244E2,1.1510437E2,6.2980742E0,9.87818E1,1.6322573E1,2.8141613E0,3.483913E0,8.323194E1,1.5549859E1,1.1487839E1,4.834735E0,1.2855127E0,2.1984003E0,7.2975945E0,7.593434E1,8.690854E0,6.8590055E0,4.0127296E0,7.4751086E0,1.639959E0,3.1947756E0,6.2329464E0,1.0646483E0,4.8704628E1,2.7229715E1,2.3271234E0,6.3637304E0,3.8573108E0,3.0016947E0,2.6051717E0,1.407558E0,2.1683607E0,1.0264149E0,2.1445937E0,4.0883527E0,3.749027E1,1.121436E1,6.1560125E0,2.1073704E1,1.1155741E0,1.2115492E0,2.225147E0,1.6321639E0,1.2022035E0,1.7994912E0],"tree_param":{"num_deleted":"0","num_feature":"7","num_nodes":"45","size_leaf_vector":"1"}},{"base_weights":[4.251002E-3,7.730772E-2,-8.908305E-2,2.2334827E-1,-1.4443667E-2,-1.1865256E-1,4.1393634E-2,1.2034658E-1,5.296281E-2,1.6406617E-1,-1.07371934E-1,-4.564151E-2,-8.791866E-2,2.504645E-1,-2.9199493E-1,-1.5068357E-1,3.378558E-1,-3.002668E-1,3.4335416E-2,-5.3326186E-2,-3.637668E-1,3.3585262E-1,